FANN_FLO_2.1
num_layers=3
learning_rate=0.700000
connection_rate=1.000000
network_type=0
learning_momentum=0.000000
training_algorithm=2
train_error_function=1
train_stop_function=0
cascade_output_change_fraction=0.010000
quickprop_decay=-0.000100
quickprop_mu=1.750000
rprop_increase_factor=1.200000
rprop_decrease_factor=0.500000
rprop_delta_min=0.000000
rprop_delta_max=50.000000
rprop_delta_zero=0.100000
cascade_output_stagnation_epochs=12
cascade_candidate_change_fraction=0.010000
cascade_candidate_stagnation_epochs=12
cascade_max_out_epochs=150
cascade_min_out_epochs=50
cascade_max_cand_epochs=150
cascade_min_cand_epochs=50
cascade_num_candidate_groups=2
bit_fail_limit=3.49999994039535522461e-01
cascade_candidate_limit=1.00000000000000000000e+03
cascade_weight_multiplier=4.00000005960464477539e-01
cascade_activation_functions_count=10
cascade_activation_functions=3 5 7 8 10 11 14 15 16 17 
cascade_activation_steepnesses_count=4
cascade_activation_steepnesses=2.50000000000000000000e-01 5.00000000000000000000e-01 7.50000000000000000000e-01 1.00000000000000000000e+00 
layer_sizes=3 201 4 
scale_included=0
neurons (num_inputs, activation_function, activation_steepness)=(0, 0, 0.00000000000000000000e+00) (0, 0, 0.00000000000000000000e+00) (0, 0, 0.00000000000000000000e+00) (3, 4, 5.00000000000000000000e-01) (3, 4, 5.00000000000000000000e-01) (3, 4, 5.00000000000000000000e-01) (3, 4, 5.00000000000000000000e-01) (3, 4, 5.00000000000000000000e-01) (3, 4, 5.00000000000000000000e-01) (3, 4, 5.00000000000000000000e-01) (3, 4, 5.00000000000000000000e-01) (3, 4, 5.00000000000000000000e-01) (3, 4, 5.00000000000000000000e-01) (3, 4, 5.00000000000000000000e-01) (3, 4, 5.00000000000000000000e-01) (3, 4, 5.00000000000000000000e-01) (3, 4, 5.00000000000000000000e-01) (3, 4, 5.00000000000000000000e-01) (3, 4, 5.00000000000000000000e-01) (3, 4, 5.00000000000000000000e-01) (3, 4, 5.00000000000000000000e-01) (3, 4, 5.00000000000000000000e-01) (3, 4, 5.00000000000000000000e-01) (3, 4, 5.00000000000000000000e-01) (3, 4, 5.00000000000000000000e-01) (3, 4, 5.00000000000000000000e-01) (3, 4, 5.00000000000000000000e-01) (3, 4, 5.00000000000000000000e-01) (3, 4, 5.00000000000000000000e-01) (3, 4, 5.00000000000000000000e-01) (3, 4, 5.00000000000000000000e-01) (3, 4, 5.00000000000000000000e-01) (3, 4, 5.00000000000000000000e-01) (3, 4, 5.00000000000000000000e-01) (3, 4, 5.00000000000000000000e-01) (3, 4, 5.00000000000000000000e-01) (3, 4, 5.00000000000000000000e-01) (3, 4, 5.00000000000000000000e-01) (3, 4, 5.00000000000000000000e-01) (3, 4, 5.00000000000000000000e-01) (3, 4, 5.00000000000000000000e-01) (3, 4, 5.00000000000000000000e-01) (3, 4, 5.00000000000000000000e-01) (3, 4, 5.00000000000000000000e-01) (3, 4, 5.00000000000000000000e-01) (3, 4, 5.00000000000000000000e-01) (3, 4, 5.00000000000000000000e-01) (3, 4, 5.00000000000000000000e-01) (3, 4, 5.00000000000000000000e-01) (3, 4, 5.00000000000000000000e-01) (3, 4, 5.00000000000000000000e-01) (3, 4, 5.00000000000000000000e-01) (3, 4, 5.00000000000000000000e-01) (3, 4, 5.00000000000000000000e-01) (3, 4, 5.00000000000000000000e-01) (3, 4, 5.00000000000000000000e-01) (3, 4, 5.00000000000000000000e-01) (3, 4, 5.00000000000000000000e-01) (3, 4, 5.00000000000000000000e-01) (3, 4, 5.00000000000000000000e-01) (3, 4, 5.00000000000000000000e-01) (3, 4, 5.00000000000000000000e-01) (3, 4, 5.00000000000000000000e-01) (3, 4, 5.00000000000000000000e-01) (3, 4, 5.00000000000000000000e-01) (3, 4, 5.00000000000000000000e-01) (3, 4, 5.00000000000000000000e-01) (3, 4, 5.00000000000000000000e-01) (3, 4, 5.00000000000000000000e-01) (3, 4, 5.00000000000000000000e-01) (3, 4, 5.00000000000000000000e-01) (3, 4, 5.00000000000000000000e-01) (3, 4, 5.00000000000000000000e-01) (3, 4, 5.00000000000000000000e-01) (3, 4, 5.00000000000000000000e-01) (3, 4, 5.00000000000000000000e-01) (3, 4, 5.00000000000000000000e-01) (3, 4, 5.00000000000000000000e-01) (3, 4, 5.00000000000000000000e-01) (3, 4, 5.00000000000000000000e-01) (3, 4, 5.00000000000000000000e-01) (3, 4, 5.00000000000000000000e-01) (3, 4, 5.00000000000000000000e-01) (3, 4, 5.00000000000000000000e-01) (3, 4, 5.00000000000000000000e-01) (3, 4, 5.00000000000000000000e-01) (3, 4, 5.00000000000000000000e-01) (3, 4, 5.00000000000000000000e-01) (3, 4, 5.00000000000000000000e-01) (3, 4, 5.00000000000000000000e-01) (3, 4, 5.00000000000000000000e-01) (3, 4, 5.00000000000000000000e-01) (3, 4, 5.00000000000000000000e-01) (3, 4, 5.00000000000000000000e-01) (3, 4, 5.00000000000000000000e-01) (3, 4, 5.00000000000000000000e-01) (3, 4, 5.00000000000000000000e-01) (3, 4, 5.00000000000000000000e-01) (3, 4, 5.00000000000000000000e-01) (3, 4, 5.00000000000000000000e-01) (3, 4, 5.00000000000000000000e-01) (3, 4, 5.00000000000000000000e-01) (3, 4, 5.00000000000000000000e-01) (3, 4, 5.00000000000000000000e-01) (3, 4, 5.00000000000000000000e-01) (3, 4, 5.00000000000000000000e-01) (3, 4, 5.00000000000000000000e-01) (3, 4, 5.00000000000000000000e-01) (3, 4, 5.00000000000000000000e-01) (3, 4, 5.00000000000000000000e-01) (3, 4, 5.00000000000000000000e-01) (3, 4, 5.00000000000000000000e-01) (3, 4, 5.00000000000000000000e-01) (3, 4, 5.00000000000000000000e-01) (3, 4, 5.00000000000000000000e-01) (3, 4, 5.00000000000000000000e-01) (3, 4, 5.00000000000000000000e-01) (3, 4, 5.00000000000000000000e-01) (3, 4, 5.00000000000000000000e-01) (3, 4, 5.00000000000000000000e-01) (3, 4, 5.00000000000000000000e-01) (3, 4, 5.00000000000000000000e-01) (3, 4, 5.00000000000000000000e-01) (3, 4, 5.00000000000000000000e-01) (3, 4, 5.00000000000000000000e-01) (3, 4, 5.00000000000000000000e-01) (3, 4, 5.00000000000000000000e-01) (3, 4, 5.00000000000000000000e-01) (3, 4, 5.00000000000000000000e-01) (3, 4, 5.00000000000000000000e-01) (3, 4, 5.00000000000000000000e-01) (3, 4, 5.00000000000000000000e-01) (3, 4, 5.00000000000000000000e-01) (3, 4, 5.00000000000000000000e-01) (3, 4, 5.00000000000000000000e-01) (3, 4, 5.00000000000000000000e-01) (3, 4, 5.00000000000000000000e-01) (3, 4, 5.00000000000000000000e-01) (3, 4, 5.00000000000000000000e-01) (3, 4, 5.00000000000000000000e-01) (3, 4, 5.00000000000000000000e-01) (3, 4, 5.00000000000000000000e-01) (3, 4, 5.00000000000000000000e-01) (3, 4, 5.00000000000000000000e-01) (3, 4, 5.00000000000000000000e-01) (3, 4, 5.00000000000000000000e-01) (3, 4, 5.00000000000000000000e-01) (3, 4, 5.00000000000000000000e-01) (3, 4, 5.00000000000000000000e-01) (3, 4, 5.00000000000000000000e-01) (3, 4, 5.00000000000000000000e-01) (3, 4, 5.00000000000000000000e-01) (3, 4, 5.00000000000000000000e-01) (3, 4, 5.00000000000000000000e-01) (3, 4, 5.00000000000000000000e-01) (3, 4, 5.00000000000000000000e-01) (3, 4, 5.00000000000000000000e-01) (3, 4, 5.00000000000000000000e-01) (3, 4, 5.00000000000000000000e-01) (3, 4, 5.00000000000000000000e-01) (3, 4, 5.00000000000000000000e-01) (3, 4, 5.00000000000000000000e-01) (3, 4, 5.00000000000000000000e-01) (3, 4, 5.00000000000000000000e-01) (3, 4, 5.00000000000000000000e-01) (3, 4, 5.00000000000000000000e-01) (3, 4, 5.00000000000000000000e-01) (3, 4, 5.00000000000000000000e-01) (3, 4, 5.00000000000000000000e-01) (3, 4, 5.00000000000000000000e-01) (3, 4, 5.00000000000000000000e-01) (3, 4, 5.00000000000000000000e-01) (3, 4, 5.00000000000000000000e-01) (3, 4, 5.00000000000000000000e-01) (3, 4, 5.00000000000000000000e-01) (3, 4, 5.00000000000000000000e-01) (3, 4, 5.00000000000000000000e-01) (3, 4, 5.00000000000000000000e-01) (3, 4, 5.00000000000000000000e-01) (3, 4, 5.00000000000000000000e-01) (3, 4, 5.00000000000000000000e-01) (3, 4, 5.00000000000000000000e-01) (3, 4, 5.00000000000000000000e-01) (3, 4, 5.00000000000000000000e-01) (3, 4, 5.00000000000000000000e-01) (3, 4, 5.00000000000000000000e-01) (3, 4, 5.00000000000000000000e-01) (3, 4, 5.00000000000000000000e-01) (3, 4, 5.00000000000000000000e-01) (3, 4, 5.00000000000000000000e-01) (3, 4, 5.00000000000000000000e-01) (3, 4, 5.00000000000000000000e-01) (3, 4, 5.00000000000000000000e-01) (3, 4, 5.00000000000000000000e-01) (3, 4, 5.00000000000000000000e-01) (3, 4, 5.00000000000000000000e-01) (3, 4, 5.00000000000000000000e-01) (3, 4, 5.00000000000000000000e-01) (3, 4, 5.00000000000000000000e-01) (3, 4, 5.00000000000000000000e-01) (3, 4, 5.00000000000000000000e-01) (3, 4, 5.00000000000000000000e-01) (3, 4, 5.00000000000000000000e-01) (0, 0, 0.00000000000000000000e+00) (201, 4, 5.00000000000000000000e-01) (201, 4, 5.00000000000000000000e-01) (201, 4, 5.00000000000000000000e-01) (0, 0, 0.00000000000000000000e+00) 
connections (connected_to_neuron, weight)=(0, -3.53076159954071044922e-01) (1, -2.58710812777280807495e-02) (2, -9.56198990345001220703e-01) (0, -2.71406888961791992188e-01) (1, -1.66705593466758728027e-01) (2, -9.83489811420440673828e-01) (0, -2.42348313331604003906e-01) (1, -9.45555388927459716797e-01) (2, -9.18519318103790283203e-01) (0, -2.47780382633209228516e-01) (1, -3.49107384681701660156e-01) (2, -9.84932780265808105469e-01) (0, -3.61789703369140625000e-01) (1, 6.02740198373794555664e-02) (2, -9.03246641159057617188e-01) (0, -2.38454982638359069824e-01) (1, 8.35618376731872558594e-01) (2, -9.97533798217773437500e-01) (0, -3.72948318719863891602e-01) (1, -7.34598517417907714844e-01) (2, -9.15535867214202880859e-01) (0, -2.21087798476219177246e-01) (1, -8.52252483367919921875e-01) (2, -9.32419180870056152344e-01) (0, -3.20545464754104614258e-01) (1, -1.03818453848361968994e-01) (2, -9.36227262020111083984e-01) (0, -3.58490079641342163086e-01) (1, -2.25396588444709777832e-01) (2, -9.15792405605316162109e-01) (0, -2.96153932809829711914e-01) (1, 7.83154129981994628906e-01) (2, -9.61613357067108154297e-01) (0, -3.30022662878036499023e-01) (1, -2.27757990360260009766e-01) (2, -9.10886764526367187500e-01) (0, -2.88186430931091308594e-01) (1, -7.12346553802490234375e-01) (2, -9.53806400299072265625e-01) (0, -2.74904400110244750977e-01) (1, -2.91804939508438110352e-01) (2, -9.49247062206268310547e-01) (0, -2.36805617809295654297e-01) (1, -7.99251794815063476562e-01) (2, -9.01326060295104980469e-01) (0, -2.44123503565788269043e-01) (1, -4.14227962493896484375e-01) (2, -9.48024749755859375000e-01) (0, -3.75025957822799682617e-01) (1, -4.83103126287460327148e-01) (2, -8.89630556106567382812e-01) (0, -3.24325770139694213867e-01) (1, -5.86239814758300781250e-01) (2, -9.54955518245697021484e-01) (0, -2.60070502758026123047e-01) (1, -1.92968025803565979004e-01) (2, -1.00999426841735839844e+00) (0, -3.43718051910400390625e-01) (1, -7.18572914600372314453e-01) (2, -8.52365732192993164062e-01) (0, -3.70720177888870239258e-01) (1, -5.04606902599334716797e-01) (2, -8.65918099880218505859e-01) (0, -2.71711111068725585938e-01) (1, 1.83206871151924133301e-02) (2, -9.62402164936065673828e-01) (0, -2.60662853717803955078e-01) (1, 5.98494350910186767578e-01) (2, -9.46970641613006591797e-01) (0, -2.98095613718032836914e-01) (1, -2.43392889387905597687e-04) (2, -9.40433144569396972656e-01) (0, -3.26027721166610717773e-01) (1, 2.20849245786666870117e-01) (2, -9.07818078994750976562e-01) (0, -2.28377342224121093750e-01) (1, -7.53420591354370117188e-02) (2, -9.86858785152435302734e-01) (0, -3.24103534221649169922e-01) (1, -5.86609363555908203125e-01) (2, -8.93900275230407714844e-01) (0, -3.26601237058639526367e-01) (1, -6.08258694410324096680e-02) (2, -9.74349081516265869141e-01) (0, -3.10727715492248535156e-01) (1, -5.96424043178558349609e-01) (2, -9.65359091758728027344e-01) (0, -2.60200262069702148438e-01) (1, 3.17202985286712646484e-01) (2, -9.90381419658660888672e-01) (0, -3.05996716022491455078e-01) (1, -7.87836909294128417969e-01) (2, -9.22047317028045654297e-01) (0, -3.38575899600982666016e-01) (1, -3.64384740591049194336e-01) (2, -9.22642827033996582031e-01) (0, -2.26326271891593933105e-01) (1, -1.03860664367675781250e+00) (2, -8.62154126167297363281e-01) (0, -2.87485480308532714844e-01) (1, -4.93509173393249511719e-01) (2, -9.54700231552124023438e-01) (0, -3.22518497705459594727e-01) (1, 1.56387425959110260010e-02) (2, -9.06865239143371582031e-01) (0, -3.58614474534988403320e-01) (1, -2.78047859668731689453e-01) (2, -9.40946817398071289062e-01) (0, -2.82363325357437133789e-01) (1, -8.38738977909088134766e-01) (2, -9.35750126838684082031e-01) (0, -3.07514667510986328125e-01) (1, -1.50534570217132568359e-01) (2, -9.91299092769622802734e-01) (0, -2.36103132367134094238e-01) (1, 1.04891049861907958984e+00) (2, -1.02462935447692871094e+00) (0, -2.72355407476425170898e-01) (1, -6.47710025310516357422e-01) (2, -9.21221911907196044922e-01) (0, -2.24126711487770080566e-01) (1, 1.29680812358856201172e-01) (2, -9.51090037822723388672e-01) (0, -3.69457006454467773438e-01) (1, -8.83919894695281982422e-01) (2, -8.61524879932403564453e-01) (0, -2.54019528627395629883e-01) (1, -1.29115313291549682617e-01) (2, -9.49085593223571777344e-01) (0, -3.08666765689849853516e-01) (1, -4.85334277153015136719e-01) (2, -9.34949100017547607422e-01) (0, -2.28707864880561828613e-01) (1, -1.86638355255126953125e-01) (2, -9.79867100715637207031e-01) (0, -2.09450870752334594727e-01) (1, -1.10554206371307373047e+00) (2, -8.86786937713623046875e-01) (0, -3.27606439590454101562e-01) (1, -2.79786616563796997070e-01) (2, -9.33816552162170410156e-01) (0, -3.07820796966552734375e-01) (1, -5.24724423885345458984e-01) (2, -9.79439616203308105469e-01) (0, -3.20990830659866333008e-01) (1, -1.82272389531135559082e-01) (2, -8.98333013057708740234e-01) (0, -3.72664660215377807617e-01) (1, -8.44871878623962402344e-01) (2, -8.85247826576232910156e-01) (0, -2.64327019453048706055e-01) (1, -7.75052607059478759766e-01) (2, -9.44448113441467285156e-01) (0, -3.11891943216323852539e-01) (1, -8.50351631641387939453e-01) (2, -9.12562727928161621094e-01) (0, -2.25566461682319641113e-01) (1, -6.94724380970001220703e-01) (2, -9.79323208332061767578e-01) (0, -2.50510007143020629883e-01) (1, 1.45610570907592773438e-01) (2, -9.38248693943023681641e-01) (0, -3.18834066390991210938e-01) (1, -1.16628980636596679688e+00) (2, -8.07322204113006591797e-01) (0, -2.81851083040237426758e-01) (1, -3.03708881139755249023e-01) (2, -9.32388126850128173828e-01) (0, -2.30696067214012145996e-01) (1, -4.05514121055603027344e-01) (2, -9.96216058731079101562e-01) (0, -3.33632022142410278320e-01) (1, -3.09905618429183959961e-01) (2, -9.05272960662841796875e-01) (0, -2.94518291950225830078e-01) (1, -9.25193965435028076172e-01) (2, -8.90439331531524658203e-01) (0, -3.18584680557250976562e-01) (1, -5.26750206947326660156e-01) (2, -9.17513966560363769531e-01) (0, -2.11212098598480224609e-01) (1, 2.15880453586578369141e-01) (2, -9.63451862335205078125e-01) (0, -2.38021448254585266113e-01) (1, -8.85542035102844238281e-01) (2, -8.93103063106536865234e-01) (0, -3.78891199827194213867e-01) (1, -6.26811802387237548828e-01) (2, -8.95882129669189453125e-01) (0, -3.63156557083129882812e-01) (1, -6.73295319080352783203e-01) (2, -8.80781888961791992188e-01) (0, -1.60270765423774719238e-01) (1, 1.01603758335113525391e+00) (2, -1.08044433593750000000e+00) (0, -2.95537978410720825195e-01) (1, -3.76071065664291381836e-01) (2, -9.78407084941864013672e-01) (0, -3.80012065172195434570e-01) (1, -3.51655155420303344727e-01) (2, -9.17874455451965332031e-01) (0, -2.88682252168655395508e-01) (1, 6.68274104595184326172e-01) (2, -9.60075795650482177734e-01) (0, -3.81221443414688110352e-01) (1, -7.35388517379760742188e-01) (2, -8.80626440048217773438e-01) (0, -3.24334532022476196289e-01) (1, -4.99535053968429565430e-01) (2, -9.02930736541748046875e-01) (0, -3.82816046476364135742e-01) (1, -8.50624561309814453125e-01) (2, -8.53817284107208251953e-01) (0, -2.52860218286514282227e-01) (1, -6.84065967798233032227e-02) (2, -1.00500655174255371094e+00) (0, -3.00906300544738769531e-01) (1, 8.26257988810539245605e-02) (2, -9.77719068527221679688e-01) (0, -2.40100055932998657227e-01) (1, -2.97384243458509445190e-02) (2, -9.29032862186431884766e-01) (0, -2.89814978837966918945e-01) (1, -3.58920514583587646484e-01) (2, -9.14816677570343017578e-01) (0, -2.25737586617469787598e-01) (1, -1.12851679325103759766e+00) (2, -8.56142818927764892578e-01) (0, -2.51722723245620727539e-01) (1, -7.58730053901672363281e-01) (2, -8.82036387920379638672e-01) (0, -3.08244913816452026367e-01) (1, -6.89984261989593505859e-02) (2, -9.24852192401885986328e-01) (0, -2.75056034326553344727e-01) (1, -7.51106858253479003906e-01) (2, -8.74147891998291015625e-01) (0, -2.98272013664245605469e-01) (1, 3.33689868450164794922e-01) (2, -9.33787167072296142578e-01) (0, -3.22480350732803344727e-01) (1, -3.68498335592448711395e-03) (2, -9.75304186344146728516e-01) (0, -2.30241656303405761719e-01) (1, -7.49906241893768310547e-01) (2, -9.26697492599487304688e-01) (0, -2.07262158393859863281e-01) (1, -7.48252987861633300781e-01) (2, -9.87316966056823730469e-01) (0, -3.79597693681716918945e-01) (1, -6.28648698329925537109e-01) (2, -8.87791931629180908203e-01) (0, -3.49094450473785400391e-01) (1, 1.09938360750675201416e-01) (2, -9.47380244731903076172e-01) (0, -1.66920796036720275879e-01) (1, -1.23588335514068603516e+00) (2, -8.38821232318878173828e-01) (0, -3.03967028856277465820e-01) (1, 1.64457750320434570312e+00) (2, -1.14581370353698730469e+00) (0, -3.34180355072021484375e-01) (1, -1.66258797049522399902e-01) (2, -9.02926027774810791016e-01) (0, -3.72651875019073486328e-01) (1, -7.00378417968750000000e-01) (2, -9.13344383239746093750e-01) (0, -3.59314709901809692383e-01) (1, -8.33944737911224365234e-01) (2, -9.17277812957763671875e-01) (0, -2.80424445867538452148e-01) (1, -5.24448633193969726562e-01) (2, -9.05566930770874023438e-01) (0, -2.21361905336380004883e-01) (1, -3.14858615398406982422e-01) (2, -9.71885859966278076172e-01) (0, -2.84417480230331420898e-01) (1, -2.87823915481567382812e-01) (2, -9.69911217689514160156e-01) (0, -2.83953189849853515625e-01) (1, 1.81589387357234954834e-02) (2, -9.22526955604553222656e-01) (0, -2.70825713872909545898e-01) (1, 5.29585599899291992188e-01) (2, -9.72810685634613037109e-01) (0, -2.72159159183502197266e-01) (1, -6.29044413566589355469e-01) (2, -9.53387796878814697266e-01) (0, -3.63231182098388671875e-01) (1, -7.86947607994079589844e-01) (2, -9.01327610015869140625e-01) (0, -2.77354091405868530273e-01) (1, -2.18942672014236450195e-01) (2, -9.44769620895385742188e-01) (0, -2.97194361686706542969e-01) (1, -7.89502441883087158203e-01) (2, -8.84897589683532714844e-01) (0, -2.35422432422637939453e-01) (1, -2.21466526389122009277e-01) (2, -9.86869931221008300781e-01) (0, -2.43500515818595886230e-01) (1, -9.17923986911773681641e-01) (2, -8.60981285572052001953e-01) (0, -2.50670552253723144531e-01) (1, -7.14720547199249267578e-01) (2, -9.16875898838043212891e-01) (0, -3.34052473306655883789e-01) (1, -3.93716216087341308594e-01) (2, -9.68295276165008544922e-01) (0, -3.07606130838394165039e-01) (1, -7.07610964775085449219e-01) (2, -8.76554191112518310547e-01) (0, -3.03425550460815429688e-01) (1, -2.04031571745872497559e-01) (2, -9.34132695198059082031e-01) (0, -2.33396470546722412109e-01) (1, -9.80733513832092285156e-01) (2, -8.94372582435607910156e-01) (0, -3.68274509906768798828e-01) (1, -7.43010222911834716797e-01) (2, -8.78170907497406005859e-01) (0, -3.01259696483612060547e-01) (1, -3.48202586174011230469e-01) (2, -9.58766996860504150391e-01) (0, -3.50711584091186523438e-01) (1, 5.70738799870014190674e-02) (2, -9.10908341407775878906e-01) (0, -1.90621286630630493164e-01) (1, 2.47426226735115051270e-01) (2, -9.80601310729980468750e-01) (0, -3.69578838348388671875e-01) (1, -6.86890423297882080078e-01) (2, -8.75924408435821533203e-01) (0, -3.55583697557449340820e-01) (1, -6.07442080974578857422e-01) (2, -9.43277299404144287109e-01) (0, -2.80681014060974121094e-01) (1, -6.69656813144683837891e-01) (2, -8.88119578361511230469e-01) (0, -2.17532575130462646484e-01) (1, -8.10145437717437744141e-01) (2, -9.28108394145965576172e-01) (0, -2.16849878430366516113e-01) (1, -1.97218835353851318359e-01) (2, -9.97990190982818603516e-01) (0, -2.76443988084793090820e-01) (1, -8.65046322345733642578e-01) (2, -8.89745473861694335938e-01) (0, -3.43873351812362670898e-01) (1, -1.20501011610031127930e-01) (2, -9.66930747032165527344e-01) (0, -2.41537511348724365234e-01) (1, -4.24500823020935058594e-01) (2, -9.50850129127502441406e-01) (0, -3.67277115583419799805e-01) (1, -4.64302271604537963867e-01) (2, -9.35389518737792968750e-01) (0, -2.25583150982856750488e-01) (1, -9.60655212402343750000e-01) (2, -8.53851079940795898438e-01) (0, -3.08374583721160888672e-01) (1, -9.34972226619720458984e-01) (2, -8.82177770137786865234e-01) (0, -3.64774525165557861328e-01) (1, -7.55877137184143066406e-01) (2, -8.67143571376800537109e-01) (0, -3.36193889379501342773e-01) (1, -7.27245390415191650391e-01) (2, -9.04097497463226318359e-01) (0, -3.46046656370162963867e-01) (1, -4.14448708295822143555e-01) (2, -9.03628706932067871094e-01) (0, -2.40471988916397094727e-01) (1, -1.07063472270965576172e+00) (2, -8.71738731861114501953e-01) (0, -2.09352388978004455566e-01) (1, -6.59209430217742919922e-01) (2, -9.98192191123962402344e-01) (0, -2.83930301666259765625e-01) (1, -2.47722119092941284180e-01) (2, -9.45707678794860839844e-01) (0, -2.49309405684471130371e-01) (1, -4.41499739885330200195e-01) (2, -9.26924467086791992188e-01) (0, -2.86750286817550659180e-01) (1, 1.59725129604339599609e-01) (2, -9.92711603641510009766e-01) (0, -2.26977571845054626465e-01) (1, 4.55851167440414428711e-01) (2, -9.93033051490783691406e-01) (0, -2.87090659141540527344e-01) (1, -6.93959355354309082031e-01) (2, -9.02748823165893554688e-01) (0, -3.62654983997344970703e-01) (1, -6.16890788078308105469e-01) (2, -9.39387619495391845703e-01) (0, -2.28238150477409362793e-01) (1, -4.03442293405532836914e-01) (2, -9.74413275718688964844e-01) (0, -3.26822042465209960938e-01) (1, -8.33308279514312744141e-01) (2, -8.79638671875000000000e-01) (0, -3.83345931768417358398e-01) (1, -2.52719551324844360352e-01) (2, -9.14565205574035644531e-01) (0, -2.86073297262191772461e-01) (1, -1.01008579134941101074e-01) (2, -9.60300505161285400391e-01) (0, -2.98430025577545166016e-01) (1, -3.43083828687667846680e-01) (2, -9.50025320053100585938e-01) (0, -3.40531826019287109375e-01) (1, -2.41835057735443115234e-01) (2, -9.59231138229370117188e-01) (0, -3.52176457643508911133e-01) (1, -1.15413762629032135010e-01) (2, -9.72119927406311035156e-01) (0, -3.67661088705062866211e-01) (1, -4.42538052797317504883e-01) (2, -8.72975587844848632812e-01) (0, -2.89857715368270874023e-01) (1, -5.10720074176788330078e-01) (2, -9.48514997959136962891e-01) (0, -3.45113188028335571289e-01) (1, -1.11116938292980194092e-01) (2, -9.11258697509765625000e-01) (0, -3.14611494541168212891e-01) (1, -8.61016154289245605469e-01) (2, -8.86649906635284423828e-01) (0, -2.60398954153060913086e-01) (1, -6.23253285884857177734e-01) (2, -9.36284184455871582031e-01) (0, -3.23453217744827270508e-01) (1, -6.93821549415588378906e-01) (2, -9.34484481811523437500e-01) (0, -3.36547702550888061523e-01) (1, 6.31608366966247558594e-01) (2, -9.02970612049102783203e-01) (0, -2.99118340015411376953e-01) (1, -8.41101109981536865234e-01) (2, -9.13819849491119384766e-01) (0, -2.46836408972740173340e-01) (1, -3.49744856357574462891e-01) (2, -9.50284242630004882812e-01) (0, -3.83646994829177856445e-01) (1, -4.23628151416778564453e-01) (2, -9.47764992713928222656e-01) (0, -3.26422363519668579102e-01) (1, 3.71853381395339965820e-01) (2, -9.30878937244415283203e-01) (0, -3.18987339735031127930e-01) (1, 3.96436721086502075195e-01) (2, -9.20496821403503417969e-01) (0, -3.30046623945236206055e-01) (1, -7.33969926834106445312e-01) (2, -8.90921771526336669922e-01) (0, -3.74598205089569091797e-01) (1, -8.25078129768371582031e-01) (2, -8.50887000560760498047e-01) (0, -2.80119240283966064453e-01) (1, -3.46792191267013549805e-01) (2, -9.88345742225646972656e-01) (0, -3.67443561553955078125e-01) (1, -9.16980683803558349609e-01) (2, -8.55552673339843750000e-01) (0, -3.28842461109161376953e-01) (1, -8.16404461860656738281e-01) (2, -8.92718553543090820312e-01) (0, -3.58159959316253662109e-01) (1, -7.53310322761535644531e-01) (2, -8.71045410633087158203e-01) (0, -2.87186056375503540039e-01) (1, -7.62471497058868408203e-01) (2, -9.22640740871429443359e-01) (0, -3.35093438625335693359e-01) (1, -8.97658824920654296875e-01) (2, -9.12494897842407226562e-01) (0, -3.37947517633438110352e-01) (1, -6.46326005458831787109e-01) (2, -8.77564072608947753906e-01) (0, -3.74420136213302612305e-01) (1, -1.55066400766372680664e-01) (2, -9.47373986244201660156e-01) (0, -2.69930273294448852539e-01) (1, -1.07378697395324707031e+00) (2, -8.10858428478240966797e-01) (0, -3.41469317674636840820e-01) (1, -8.38763773441314697266e-01) (2, -8.39002490043640136719e-01) (0, -3.87227863073348999023e-01) (1, -5.26469171047210693359e-01) (2, -8.93154084682464599609e-01) (0, -3.44947516918182373047e-01) (1, -5.60928098857402801514e-02) (2, -9.10332620143890380859e-01) (0, -2.83027142286300659180e-01) (1, -6.78334295749664306641e-01) (2, -8.75230789184570312500e-01) (0, -3.66490185260772705078e-01) (1, -5.14897525310516357422e-01) (2, -9.11914467811584472656e-01) (0, -2.06008955836296081543e-01) (1, 3.08295525610446929932e-02) (2, -9.42979156970977783203e-01) (0, -3.20702403783798217773e-01) (1, -5.71330368518829345703e-01) (2, -9.29510653018951416016e-01) (0, -3.30689907073974609375e-01) (1, -5.98209917545318603516e-01) (2, -8.84369611740112304688e-01) (0, -3.32671970129013061523e-01) (1, -6.24348998069763183594e-01) (2, -9.11560535430908203125e-01) (0, -2.64917254447937011719e-01) (1, -8.65918219089508056641e-01) (2, -8.88365983963012695312e-01) (0, -2.85107910633087158203e-01) (1, -6.86943650245666503906e-01) (2, -8.99311244487762451172e-01) (0, -2.63121873140335083008e-01) (1, -2.11072489619255065918e-01) (2, -9.56660151481628417969e-01) (0, -2.99173474311828613281e-01) (1, -5.71375265717506408691e-02) (2, -9.79183733463287353516e-01) (0, -3.07347446680068969727e-01) (1, 5.42206093668937683105e-02) (2, -9.60743188858032226562e-01) (0, -3.38414251804351806641e-01) (1, -1.64659500122070312500e-01) (2, -9.30360257625579833984e-01) (0, -2.49064415693283081055e-01) (1, -3.04422020912170410156e-01) (2, -9.61061239242553710938e-01) (0, -2.11920857429504394531e-01) (1, 5.82265973091125488281e-01) (2, -9.82772231101989746094e-01) (0, -3.94036173820495605469e-01) (1, -4.00450825691223144531e-01) (2, -8.75935554504394531250e-01) (0, -2.26788297295570373535e-01) (1, -2.61963874101638793945e-01) (2, -9.88442480564117431641e-01) (0, -3.08431357145309448242e-01) (1, -5.08526384830474853516e-01) (2, -9.41653430461883544922e-01) (0, -3.84422868490219116211e-01) (1, -7.43114113807678222656e-01) (2, -8.57642114162445068359e-01) (0, -2.40766465663909912109e-01) (1, -4.85905766487121582031e-01) (2, -9.79807734489440917969e-01) (0, -3.53460341691970825195e-01) (1, -6.34895503520965576172e-01) (2, -8.66552889347076416016e-01) (0, -2.86439865827560424805e-01) (1, -7.94910609722137451172e-01) (2, -9.27672386169433593750e-01) (0, -2.49685615301132202148e-01) (1, -2.34795615077018737793e-01) (2, -9.33854639530181884766e-01) (0, -3.09219747781753540039e-01) (1, -3.30450803041458129883e-01) (2, -9.50969815254211425781e-01) (0, -2.27797985076904296875e-01) (1, -5.60575842857360839844e-01) (2, -9.60797786712646484375e-01) (0, -3.26638609170913696289e-01) (1, -5.01965701580047607422e-01) (2, -9.08333122730255126953e-01) (0, -3.35777401924133300781e-01) (1, -5.46362578868865966797e-01) (2, -9.30366158485412597656e-01) (0, -2.88232177495956420898e-01) (1, -8.16229581832885742188e-01) (2, -8.92250478267669677734e-01) (0, -2.32860967516899108887e-01) (1, -4.98068124055862426758e-01) (2, -9.35310184955596923828e-01) (0, -2.61856317520141601562e-01) (1, -5.54681062698364257812e-01) (2, -9.41856443881988525391e-01) (0, -2.01603442430496215820e-01) (1, 8.00743885338306427002e-03) (2, -9.70789253711700439453e-01) (0, -2.21126586198806762695e-01) (1, -4.92071807384490966797e-01) (2, -9.92807209491729736328e-01) (0, -3.58696758747100830078e-01) (1, -8.52431237697601318359e-01) (2, -8.57726395130157470703e-01) (0, -3.69611263275146484375e-01) (1, -4.02079075574874877930e-01) (2, -9.55667793750762939453e-01) (0, -2.66297787427902221680e-01) (1, 2.32416808605194091797e-01) (2, -9.65998113155364990234e-01) (0, -2.27496162056922912598e-01) (1, 2.91804820299148559570e-01) (2, -9.74157154560089111328e-01) (3, -8.11307355761528015137e-02) (4, -2.64300629496574401855e-02) (5, 1.35443508625030517578e-01) (6, 7.37607106566429138184e-02) (7, -1.04773238301277160645e-01) (8, -5.78373968601226806641e-01) (9, 1.47666350007057189941e-01) (10, 1.43370404839515686035e-01) (11, -3.20682581514120101929e-03) (12, -5.00725656747817993164e-02) (13, -5.13913214206695556641e-01) (14, 2.56610382348299026489e-03) (15, 1.59661576151847839355e-01) (16, 9.16547514498233795166e-03) (17, 5.44974952936172485352e-02) (18, 4.38015870749950408936e-02) (19, 8.63753110170364379883e-02) (20, 8.57881605625152587891e-02) (21, -3.89767847955226898193e-02) (22, 1.79575040936470031738e-01) (23, 1.46620392799377441406e-01) (24, -1.45447850227355957031e-01) (25, -3.95488709211349487305e-01) (26, -1.53120294213294982910e-01) (27, -2.54816830158233642578e-01) (28, -8.91822874546051025391e-02) (29, 1.03687301278114318848e-01) (30, -8.11927542090415954590e-02) (31, 1.44470423460006713867e-01) (32, -3.20628017187118530273e-01) (33, 6.59663528203964233398e-02) (34, 3.41401016339659690857e-03) (35, 1.09160505235195159912e-01) (36, 7.98523277044296264648e-02) (37, -6.01211898028850555420e-02) (38, 1.94825176149606704712e-02) (39, 1.87686786055564880371e-01) (40, -1.71148795634508132935e-02) (41, -6.56524658203125000000e-01) (42, 1.33156642317771911621e-01) (43, -1.61700069904327392578e-01) (44, 2.21956610679626464844e-01) (45, 1.47994617000222206116e-02) (46, 4.76246885955333709717e-02) (47, -4.42262887954711914062e-02) (48, 1.81387260556221008301e-01) (49, 6.60657957196235656738e-02) (50, 1.01172968745231628418e-01) (51, 2.29502562433481216431e-03) (52, 2.34849587082862854004e-01) (53, 1.39952823519706726074e-01) (54, 2.14240401983261108398e-01) (55, 1.28381505608558654785e-01) (56, -1.98228299617767333984e-01) (57, 1.80738255381584167480e-01) (58, 5.19182570278644561768e-02) (59, 2.98437513411045074463e-02) (60, 3.35614867508411407471e-02) (61, 1.59749329090118408203e-01) (62, 4.96966093778610229492e-02) (63, -1.64627254009246826172e-01) (64, 1.31317138671875000000e-01) (65, 1.14589899778366088867e-01) (66, 1.08700424432754516602e-01) (67, -6.42633914947509765625e-01) (68, 1.45439207553863525391e-02) (69, 3.00088878720998764038e-02) (70, -5.08401453495025634766e-01) (71, 1.57006531953811645508e-01) (72, 6.58608227968215942383e-02) (73, 1.73956379294395446777e-01) (74, -7.19358399510383605957e-02) (75, -1.47904410958290100098e-01) (76, -4.04088012874126434326e-02) (77, 5.71520887315273284912e-02) (78, 1.13006845116615295410e-01) (79, 1.68854176998138427734e-01) (80, -8.10082629323005676270e-02) (81, 1.07823297381401062012e-01) (82, -3.56716245412826538086e-01) (83, -3.38817536830902099609e-02) (84, 1.45638287067413330078e-01) (85, 1.22353583574295043945e-01) (86, 1.67245656251907348633e-01) (87, -1.89799755811691284180e-01) (88, 1.01707972586154937744e-01) (89, -1.05517065525054931641e+00) (90, -1.17740845307707786560e-02) (91, 1.39129385352134704590e-01) (92, 1.97551637887954711914e-01) (93, 3.84071171283721923828e-02) (94, 1.11889401450753211975e-02) (95, 3.68216745555400848389e-02) (96, -1.01422443985939025879e-01) (97, -4.62591111660003662109e-01) (98, 1.16715967655181884766e-01) (99, 1.92643508315086364746e-01) (100, -1.79565511643886566162e-02) (101, 1.67776122689247131348e-01) (102, -1.70960314571857452393e-02) (103, 1.07891634106636047363e-01) (104, 1.51929050683975219727e-01) (105, 3.33626270294189453125e-02) (106, 1.64167970418930053711e-01) (107, 2.58963881060481071472e-03) (108, 1.42573669552803039551e-01) (109, 1.20152600109577178955e-01) (110, 5.16950711607933044434e-02) (111, -6.65165409445762634277e-02) (112, -2.97844439744949340820e-01) (113, 9.02457460761070251465e-02) (114, 1.93690121173858642578e-01) (115, 1.49060472846031188965e-01) (116, 7.19478726387023925781e-02) (117, 4.87472675740718841553e-02) (118, 1.51415884494781494141e-01) (119, -8.11247751116752624512e-02) (120, 3.63233201205730438232e-02) (121, 6.19171112775802612305e-02) (122, 1.05282120406627655029e-01) (123, 1.79406687617301940918e-01) (124, 1.03246994316577911377e-01) (125, 2.01015979051589965820e-01) (126, 9.76286530494689941406e-02) (127, 1.69336885213851928711e-01) (128, 1.22066535055637359619e-01) (129, -5.10628633201122283936e-02) (130, 6.60598427057266235352e-02) (131, -2.81306296586990356445e-01) (132, -4.04344141483306884766e-01) (133, 1.90135180950164794922e-01) (134, 1.44817084074020385742e-01) (135, 1.01452797651290893555e-01) (136, 1.39987081289291381836e-01) (137, 3.39161120355129241943e-02) (138, -5.19880577921867370605e-02) (139, 4.76671382784843444824e-02) (140, 2.56893108598887920380e-03) (141, 5.53620792925357818604e-03) (142, 7.74728432297706604004e-02) (143, 7.72390514612197875977e-02) (144, -3.53339910507202148438e-02) (145, 1.09465189278125762939e-01) (146, 2.71899495273828506470e-02) (147, 9.05380919575691223145e-02) (148, -4.96318340301513671875e-01) (149, 1.91134408116340637207e-01) (150, 4.72409427165985107422e-02) (151, 1.02402856573462486267e-02) (152, -3.94697308540344238281e-01) (153, -3.59665483236312866211e-01) (154, 1.67254313826560974121e-01) (155, 1.65038734674453735352e-01) (156, 9.23313125967979431152e-02) (157, 1.38992980122566223145e-01) (158, 1.34249418973922729492e-01) (159, 1.55114755034446716309e-01) (160, 1.12411834299564361572e-01) (161, 2.30266436934471130371e-01) (162, 1.60246700048446655273e-01) (163, 2.34464295208454132080e-02) (164, 1.76654443144798278809e-01) (165, 1.53095081448554992676e-01) (166, 1.00141867995262145996e-01) (167, -9.14865136146545410156e-02) (168, 8.47306177020072937012e-02) (169, 5.02078011631965637207e-02) (170, -1.07898131012916564941e-01) (171, 9.92633104324340820312e-02) (172, 1.47814333438873291016e-01) (173, 1.81980073451995849609e-01) (174, 1.01490035653114318848e-01) (175, 1.48735851049423217773e-01) (176, -2.71919872611761093140e-02) (177, -8.35281014442443847656e-02) (178, -1.54288411140441894531e-01) (179, -3.05806044489145278931e-02) (180, 6.10785605385899543762e-03) (181, -3.94050776958465576172e-01) (182, 8.76239165663719177246e-02) (183, -9.54272970557212829590e-03) (184, 1.14562705159187316895e-01) (185, 1.42844498157501220703e-01) (186, 9.49561223387718200684e-02) (187, 1.43392831087112426758e-01) (188, 1.34298548102378845215e-01) (189, -3.96126061677932739258e-02) (190, 3.21991145610809326172e-02) (191, 6.00323192775249481201e-02) (192, 6.98874890804290771484e-02) (193, 8.32348465919494628906e-02) (194, 1.39858201146125793457e-01) (195, 2.98046623356640338898e-03) (196, 1.21110446751117706299e-01) (197, -1.18550747632980346680e-01) (198, 7.82380625605583190918e-02) (199, 2.01912403106689453125e-01) (200, 6.29576817154884338379e-02) (201, -2.72766530513763427734e-01) (202, -3.53111267089843750000e-01) (203, -1.07306945323944091797e+00) (3, -1.55329942703247070312e-01) (4, -6.90187290310859680176e-02) (5, 3.91325771808624267578e-01) (6, -4.25771474838256835938e-02) (7, -9.52189043164253234863e-02) (8, -4.82281386852264404297e-01) (9, 1.75100311636924743652e-01) (10, 3.27456116676330566406e-01) (11, -5.23540079593658447266e-02) (12, 1.26715507358312606812e-02) (13, -4.27089571952819824219e-01) (14, -7.82495513558387756348e-02) (15, 1.16725876927375793457e-01) (16, 5.57668432593345642090e-02) (17, 2.77000516653060913086e-01) (18, 9.49291288852691650391e-02) (19, -8.54508765041828155518e-03) (20, 1.95791259407997131348e-01) (21, 2.72936187684535980225e-02) (22, 1.55412763357162475586e-01) (23, 2.25861892104148864746e-02) (24, -3.69597300887107849121e-02) (25, -3.53012531995773315430e-01) (26, -4.32315170764923095703e-02) (27, -2.12569236755371093750e-01) (28, -1.72103960067033767700e-02) (29, 1.18222065269947052002e-01) (30, -5.84212727844715118408e-02) (31, 1.77144676446914672852e-01) (32, -1.99240773916244506836e-01) (33, 2.85674571990966796875e-01) (34, 7.94024318456649780273e-02) (35, 4.35984134674072265625e-01) (36, 1.16813488304615020752e-01) (37, -1.87826827168464660645e-01) (38, -2.57017370313405990601e-02) (39, 3.07073175907135009766e-01) (40, -3.67240048944950103760e-02) (41, -4.95791316032409667969e-01) (42, 1.45946174860000610352e-01) (43, -1.83119624853134155273e-01) (44, 2.68766105175018310547e-01) (45, -5.40483333170413970947e-02) (46, 5.73220700025558471680e-02) (47, -6.39476627111434936523e-02) (48, 3.81273061037063598633e-01) (49, -5.67315258085727691650e-02) (50, 8.24547708034515380859e-02) (51, -8.51295441389083862305e-02) (52, 1.68859153985977172852e-01) (53, 2.94619351625442504883e-01) (54, 2.10202291607856750488e-01) (55, 2.17880025506019592285e-01) (56, -1.90905973315238952637e-01) (57, 5.06343543529510498047e-01) (58, -4.94851320981979370117e-02) (59, 1.25013068318367004395e-01) (60, -1.74649362452328205109e-03) (61, 3.27368468046188354492e-01) (62, 1.45002126693725585938e-01) (63, -2.63265460729598999023e-01) (64, 2.91146516799926757812e-01) (65, 1.66467353701591491699e-01) (66, 2.15270057320594787598e-01) (67, -4.98173743486404418945e-01) (68, 6.29071518778800964355e-02) (69, 1.62099823355674743652e-02) (70, -3.85211855173110961914e-01) (71, 1.29524633288383483887e-01) (72, 1.20093651115894317627e-01) (73, 2.38412976264953613281e-01) (74, -5.03065697848796844482e-02) (75, -1.28130540251731872559e-01) (76, -1.44713997840881347656e-01) (77, 1.09394662082195281982e-01) (78, 4.82900589704513549805e-01) (79, 2.23079845309257507324e-01) (80, -1.06712289154529571533e-01) (81, 1.86122730374336242676e-01) (82, -1.85342878103256225586e-01) (83, -1.36300623416900634766e-01) (84, 1.48424416780471801758e-01) (85, 2.43586525321006774902e-01) (86, 5.00241108238697052002e-02) (87, -1.16371296346187591553e-01) (88, 5.76200246810913085938e-01) (89, -6.83449745178222656250e-01) (90, -7.03616663813591003418e-02) (91, 1.53614372014999389648e-01) (92, 2.89942622184753417969e-01) (93, 1.63080394268035888672e-01) (94, -6.35220669209957122803e-03) (95, -1.82548835873603820801e-02) (96, -9.11295264959335327148e-02) (97, -2.83949792385101318359e-01) (98, 1.73043042421340942383e-01) (99, 1.64513185620307922363e-01) (100, 5.43153509497642517090e-02) (101, 2.87530004978179931641e-01) (102, -4.14722450077533721924e-02) (103, 3.32813113927841186523e-01) (104, 2.03185841441154479980e-01) (105, 1.04504562914371490479e-01) (106, 8.66997092962265014648e-02) (107, 4.14450047537684440613e-03) (108, 4.02781754732131958008e-01) (109, 2.30666562914848327637e-01) (110, -1.91369298845529556274e-02) (111, -1.77240490913391113281e-01) (112, -2.47071489691734313965e-01) (113, 2.10470497608184814453e-01) (114, 1.11754506826400756836e-01) (115, 1.32136777043342590332e-01) (116, 2.81248420476913452148e-01) (117, -3.75919602811336517334e-02) (118, 2.90339976549148559570e-01) (119, -5.47929219901561737061e-02) (120, 1.21317237615585327148e-01) (121, 1.64842486381530761719e-01) (122, 4.05917078256607055664e-01) (123, 3.15823823213577270508e-01) (124, 2.61282265186309814453e-01) (125, 1.67581871151924133301e-01) (126, -8.91983974725008010864e-03) (127, 3.87621760368347167969e-01) (128, 2.02392980456352233887e-01) (129, 2.88912374526262283325e-02) (130, 7.72748664021492004395e-02) (131, -1.08514375984668731689e-01) (132, -2.05259740352630615234e-01) (133, 1.23787410557270050049e-01) (134, 1.11931428313255310059e-01) (135, 4.57111222203820943832e-04) (136, 1.88907235860824584961e-01) (137, -3.09530980885028839111e-02) (138, -1.44713625311851501465e-01) (139, -4.59641888737678527832e-02) (140, -4.00887988507747650146e-02) (141, -9.25579369068145751953e-02) (142, 1.51580236852169036865e-02) (143, 1.12700492143630981445e-01) (144, -8.73153284192085266113e-02) (145, 2.93582946062088012695e-01) (146, 2.14885666966438293457e-01) (147, 2.17451483011245727539e-01) (148, -3.70507091283798217773e-01) (149, 2.61919081211090087891e-01) (150, -2.07208134233951568604e-02) (151, 1.21297553181648254395e-01) (152, -1.98392584919929504395e-01) (153, -2.53981679677963256836e-01) (154, 1.92615434527397155762e-01) (155, 2.46035963296890258789e-01) (156, 1.96243524551391601562e-02) (157, 3.19647610187530517578e-01) (158, 3.28901529312133789062e-01) (159, 1.61576107144355773926e-01) (160, 2.20418244600296020508e-01) (161, 2.93731570243835449219e-01) (162, 7.02780485153198242188e-02) (163, -5.61413802206516265869e-02) (164, 4.64346140623092651367e-01) (165, 2.63576209545135498047e-01) (166, 1.20753958821296691895e-01) (167, -1.64328977465629577637e-01) (168, 1.02473825216293334961e-01) (169, 1.61627322435379028320e-01) (170, -1.94654986262321472168e-01) (171, 1.01264305412769317627e-01) (172, 6.23637326061725616455e-02) (173, 1.13256849348545074463e-01) (174, 3.29754650592803955078e-01) (175, 1.32051303982734680176e-01) (176, -1.14345572888851165771e-01) (177, -4.35430593788623809814e-02) (178, -1.64420142769813537598e-01) (179, -8.59896317124366760254e-02) (180, -4.03282083570957183838e-02) (181, -3.37470531463623046875e-01) (182, -8.18234495818614959717e-03) (183, 4.75575290620326995850e-02) (184, 1.06940418481826782227e-01) (185, 2.60518819093704223633e-01) (186, 4.62284274399280548096e-02) (187, 9.41466465592384338379e-02) (188, 2.21166789531707763672e-01) (189, -4.89403605461120605469e-02) (190, 3.11896689236164093018e-02) (191, 6.64851889014244079590e-02) (192, 2.40857973694801330566e-02) (193, 1.59500837326049804688e-01) (194, 2.29049667716026306152e-01) (195, 1.62604406476020812988e-01) (196, 6.97905048727989196777e-02) (197, -1.43651530146598815918e-01) (198, 5.53268333896994590759e-03) (199, 2.16072455048561096191e-01) (200, -2.36952155828475952148e-02) (201, -2.20069646835327148438e-01) (202, -1.93298533558845520020e-01) (203, -9.04737234115600585938e-01) (3, -6.15802593529224395752e-02) (4, -2.39436253905296325684e-02) (5, 1.32641777396202087402e-01) (6, 1.46381454542279243469e-02) (7, -2.06275358796119689941e-01) (8, -3.38388741016387939453e-01) (9, 1.69918373227119445801e-01) (10, 5.41120059788227081299e-02) (11, -1.33138582110404968262e-01) (12, 5.23762442171573638916e-02) (13, -4.19962525367736816406e-01) (14, 2.84042861312627792358e-02) (15, 1.42692908644676208496e-01) (16, -5.09844161570072174072e-03) (17, 1.60940438508987426758e-01) (18, 9.04399715363979339600e-03) (19, 1.30582794547080993652e-01) (20, 6.65350183844566345215e-02) (21, -3.55765111744403839111e-02) (22, 4.61928471922874450684e-02) (23, 2.63271462172269821167e-02) (24, -1.40011668205261230469e-01) (25, -3.73387873172760009766e-01) (26, -8.75880569219589233398e-02) (27, -1.80904090404510498047e-01) (28, -9.85429063439369201660e-02) (29, 9.12026539444923400879e-02) (30, -7.03370943665504455566e-02) (31, 2.01220773160457611084e-02) (32, -2.58523643016815185547e-01) (33, 1.94330304861068725586e-01) (34, 6.61220774054527282715e-02) (35, 1.30186647176742553711e-01) (36, 4.27393317222595214844e-02) (37, -1.42278999090194702148e-01) (38, 3.67448553442955017090e-02) (39, 7.92146623134613037109e-02) (40, -7.22560882568359375000e-02) (41, -4.92915004491806030273e-01) (42, 5.71691915392875671387e-02) (43, -1.96076035499572753906e-01) (44, 1.06116153299808502197e-01) (45, -1.35215952992439270020e-01) (46, 1.23076230287551879883e-01) (47, 2.54111904650926589966e-02) (48, 1.81175485253334045410e-01) (49, -2.39738412201404571533e-02) (50, 9.39285829663276672363e-02) (51, -2.69028954207897186279e-02) (52, 1.70513734221458435059e-01) (53, 4.59312386810779571533e-02) (54, 1.31769388914108276367e-01) (55, 8.17607492208480834961e-02) (56, -1.69838711619377136230e-01) (57, 1.95902988314628601074e-01) (58, -5.30673703178763389587e-03) (59, -1.80300528882071375847e-04) (60, 2.76542529463768005371e-02) (61, 1.52057588100433349609e-01) (62, 7.99539983272552490234e-02) (63, -2.66614019870758056641e-01) (64, 1.13738968968391418457e-01) (65, 7.68847092986106872559e-02) (66, 1.05984576046466827393e-01) (67, -4.66120272874832153320e-01) (68, 6.04381524026393890381e-02) (69, 5.84331899881362915039e-02) (70, -3.09867471456527709961e-01) (71, 1.66856735944747924805e-01) (72, 7.34481066465377807617e-02) (73, 1.79124444723129272461e-01) (74, -1.04782596230506896973e-01) (75, -1.70231044292449951172e-01) (76, -1.50930717587471008301e-01) (77, -5.25353737175464630127e-02) (78, 1.80542722344398498535e-01) (79, 1.86327807605266571045e-02) (80, -5.36720603704452514648e-02) (81, 1.44186660647392272949e-01) (82, -2.18669652938842773438e-01) (83, -1.73412308096885681152e-01) (84, 1.23900018632411956787e-01) (85, 1.20553582906723022461e-01) (86, 1.17835424840450286865e-01) (87, -1.62113890051841735840e-01) (88, 1.54642045497894287109e-01) (89, -7.49862372875213623047e-01) (90, -3.71677801012992858887e-02) (91, 1.46501153707504272461e-01) (92, 1.60929292440414428711e-01) (93, 8.66504460573196411133e-02) (94, 3.73286195099353790283e-02) (95, -7.99135398119688034058e-03) (96, -1.63932725787162780762e-01) (97, -2.68449991941452026367e-01) (98, 7.17645213007926940918e-02) (99, 1.60974383354187011719e-01) (100, -5.63383176922798156738e-02) (101, 3.05212792009115219116e-02) (102, 7.41959828883409500122e-03) (103, 1.35090619325637817383e-01) (104, 3.31078432500362396240e-02) (105, 3.96450720727443695068e-02) (106, 1.24687388539314270020e-01) (107, -5.44284395873546600342e-02) (108, 1.10472179949283599854e-01) (109, 1.43750265240669250488e-01) (110, 2.66241729259490966797e-02) (111, -2.05014497041702270508e-01) (112, -1.24876409769058227539e-01) (113, 1.38396725058555603027e-01) (114, 1.89270675182342529297e-02) (115, 7.63059258460998535156e-02) (116, 1.42662569880485534668e-01) (117, -1.18980079889297485352e-01) (118, 1.10227234661579132080e-01) (119, 6.30416348576545715332e-03) (120, -2.85639357753098011017e-03) (121, 1.29529379773885011673e-03) (122, 8.57989788055419921875e-02) (123, 1.61806777119636535645e-01) (124, 1.41126126050949096680e-01) (125, 4.65306639671325683594e-02) (126, 2.82111782580614089966e-02) (127, 1.63709551095962524414e-01) (128, 6.82680159807205200195e-02) (129, 5.40032424032688140869e-02) (130, 2.75637619197368621826e-02) (131, -1.09525121748447418213e-01) (132, -2.89391875267028808594e-01) (133, 3.49272154271602630615e-02) (134, 1.04223378002643585205e-01) (135, -5.30607113614678382874e-03) (136, 1.91446840763092041016e-01) (137, -6.33576791733503341675e-03) (138, -9.22242738306522369385e-03) (139, 4.85013462603092193604e-02) (140, 8.00645537674427032471e-03) (141, -9.83987301588058471680e-02) (142, 7.84611254930496215820e-02) (143, 3.47740761935710906982e-02) (144, -7.22509250044822692871e-02) (145, 1.72042205929756164551e-01) (146, 1.28239840269088745117e-01) (147, 1.47830545902252197266e-01) (148, -2.68906116485595703125e-01) (149, 1.05971589684486389160e-01) (150, 3.30614671111106872559e-02) (151, 8.86528939008712768555e-02) (152, -2.23268553614616394043e-01) (153, -2.69359976053237915039e-01) (154, 8.41031074523925781250e-02) (155, 1.13387100398540496826e-01) (156, -4.32336628437042236328e-02) (157, 2.08662167191505432129e-01) (158, 8.21000412106513977051e-02) (159, 1.49910375475883483887e-01) (160, 1.48112043738365173340e-01) (161, 1.73014000058174133301e-01) (162, 1.01305395364761352539e-01) (163, -9.52055975794792175293e-02) (164, 3.62418256700038909912e-02) (165, 1.01134002208709716797e-01) (166, 6.07332549989223480225e-02) (167, 5.67104259971529245377e-04) (168, 1.74325585365295410156e-01) (169, 6.66246935725212097168e-02) (170, -1.11447960138320922852e-01) (171, 7.42970630526542663574e-02) (172, 7.64006972312927246094e-02) (173, 1.82417090982198715210e-02) (174, 1.08798399567604064941e-01) (175, 8.35141614079475402832e-02) (176, 6.24697320163249969482e-02) (177, -9.55751612782478332520e-02) (178, -9.05567109584808349609e-02) (179, 6.87692547217011451721e-03) (180, 6.22117109596729278564e-02) (181, -3.62180978059768676758e-01) (182, 4.57282662391662597656e-02) (183, -2.30756197124719619751e-02) (184, 4.41576447337865829468e-03) (185, 6.04981482028961181641e-02) (186, 5.93149960041046142578e-02) (187, 8.18044543266296386719e-02) (188, 1.64501816034317016602e-01) (189, 6.07252828776836395264e-02) (190, 6.57814182341098785400e-03) (191, 1.30173578858375549316e-01) (192, 1.23251885175704956055e-01) (193, 3.63653078675270080566e-02) (194, 1.40906408429145812988e-01) (195, 9.57682952284812927246e-02) (196, 5.70794902741909027100e-02) (197, -9.26151722669601440430e-02) (198, 1.01833306252956390381e-01) (199, 1.20259135961532592773e-01) (200, 9.98621731996536254883e-02) (201, -1.77751198410987854004e-01) (202, -1.46397575736045837402e-01) (203, -8.45699787139892578125e-01) 
