FANN_FLO_2.1
num_layers=4
learning_rate=0.700000
connection_rate=1.000000
network_type=0
learning_momentum=0.000000
training_algorithm=2
train_error_function=1
train_stop_function=0
cascade_output_change_fraction=0.010000
quickprop_decay=-0.000100
quickprop_mu=1.750000
rprop_increase_factor=1.200000
rprop_decrease_factor=0.500000
rprop_delta_min=0.000000
rprop_delta_max=50.000000
rprop_delta_zero=0.100000
cascade_output_stagnation_epochs=12
cascade_candidate_change_fraction=0.010000
cascade_candidate_stagnation_epochs=12
cascade_max_out_epochs=150
cascade_min_out_epochs=50
cascade_max_cand_epochs=150
cascade_min_cand_epochs=50
cascade_num_candidate_groups=2
bit_fail_limit=3.49999994039535522461e-01
cascade_candidate_limit=1.00000000000000000000e+03
cascade_weight_multiplier=4.00000005960464477539e-01
cascade_activation_functions_count=10
cascade_activation_functions=3 5 7 8 10 11 14 15 16 17 
cascade_activation_steepnesses_count=4
cascade_activation_steepnesses=2.50000000000000000000e-01 5.00000000000000000000e-01 7.50000000000000000000e-01 1.00000000000000000000e+00 
layer_sizes=3 301 101 4 
scale_included=0
neurons (num_inputs, activation_function, activation_steepness)=(0, 0, 0.00000000000000000000e+00) (0, 0, 0.00000000000000000000e+00) (0, 0, 0.00000000000000000000e+00) (3, 4, 5.00000000000000000000e-01) (3, 4, 5.00000000000000000000e-01) (3, 4, 5.00000000000000000000e-01) (3, 4, 5.00000000000000000000e-01) (3, 4, 5.00000000000000000000e-01) (3, 4, 5.00000000000000000000e-01) (3, 4, 5.00000000000000000000e-01) (3, 4, 5.00000000000000000000e-01) (3, 4, 5.00000000000000000000e-01) (3, 4, 5.00000000000000000000e-01) (3, 4, 5.00000000000000000000e-01) (3, 4, 5.00000000000000000000e-01) (3, 4, 5.00000000000000000000e-01) (3, 4, 5.00000000000000000000e-01) (3, 4, 5.00000000000000000000e-01) (3, 4, 5.00000000000000000000e-01) (3, 4, 5.00000000000000000000e-01) (3, 4, 5.00000000000000000000e-01) (3, 4, 5.00000000000000000000e-01) (3, 4, 5.00000000000000000000e-01) (3, 4, 5.00000000000000000000e-01) (3, 4, 5.00000000000000000000e-01) (3, 4, 5.00000000000000000000e-01) (3, 4, 5.00000000000000000000e-01) (3, 4, 5.00000000000000000000e-01) (3, 4, 5.00000000000000000000e-01) (3, 4, 5.00000000000000000000e-01) (3, 4, 5.00000000000000000000e-01) (3, 4, 5.00000000000000000000e-01) (3, 4, 5.00000000000000000000e-01) (3, 4, 5.00000000000000000000e-01) (3, 4, 5.00000000000000000000e-01) (3, 4, 5.00000000000000000000e-01) (3, 4, 5.00000000000000000000e-01) (3, 4, 5.00000000000000000000e-01) (3, 4, 5.00000000000000000000e-01) (3, 4, 5.00000000000000000000e-01) (3, 4, 5.00000000000000000000e-01) (3, 4, 5.00000000000000000000e-01) (3, 4, 5.00000000000000000000e-01) (3, 4, 5.00000000000000000000e-01) (3, 4, 5.00000000000000000000e-01) (3, 4, 5.00000000000000000000e-01) (3, 4, 5.00000000000000000000e-01) (3, 4, 5.00000000000000000000e-01) (3, 4, 5.00000000000000000000e-01) (3, 4, 5.00000000000000000000e-01) (3, 4, 5.00000000000000000000e-01) (3, 4, 5.00000000000000000000e-01) (3, 4, 5.00000000000000000000e-01) (3, 4, 5.00000000000000000000e-01) (3, 4, 5.00000000000000000000e-01) (3, 4, 5.00000000000000000000e-01) (3, 4, 5.00000000000000000000e-01) (3, 4, 5.00000000000000000000e-01) (3, 4, 5.00000000000000000000e-01) (3, 4, 5.00000000000000000000e-01) (3, 4, 5.00000000000000000000e-01) (3, 4, 5.00000000000000000000e-01) (3, 4, 5.00000000000000000000e-01) (3, 4, 5.00000000000000000000e-01) (3, 4, 5.00000000000000000000e-01) (3, 4, 5.00000000000000000000e-01) (3, 4, 5.00000000000000000000e-01) (3, 4, 5.00000000000000000000e-01) (3, 4, 5.00000000000000000000e-01) (3, 4, 5.00000000000000000000e-01) (3, 4, 5.00000000000000000000e-01) (3, 4, 5.00000000000000000000e-01) (3, 4, 5.00000000000000000000e-01) (3, 4, 5.00000000000000000000e-01) (3, 4, 5.00000000000000000000e-01) (3, 4, 5.00000000000000000000e-01) (3, 4, 5.00000000000000000000e-01) (3, 4, 5.00000000000000000000e-01) (3, 4, 5.00000000000000000000e-01) (3, 4, 5.00000000000000000000e-01) (3, 4, 5.00000000000000000000e-01) (3, 4, 5.00000000000000000000e-01) (3, 4, 5.00000000000000000000e-01) (3, 4, 5.00000000000000000000e-01) (3, 4, 5.00000000000000000000e-01) (3, 4, 5.00000000000000000000e-01) (3, 4, 5.00000000000000000000e-01) (3, 4, 5.00000000000000000000e-01) (3, 4, 5.00000000000000000000e-01) (3, 4, 5.00000000000000000000e-01) (3, 4, 5.00000000000000000000e-01) (3, 4, 5.00000000000000000000e-01) (3, 4, 5.00000000000000000000e-01) (3, 4, 5.00000000000000000000e-01) (3, 4, 5.00000000000000000000e-01) (3, 4, 5.00000000000000000000e-01) (3, 4, 5.00000000000000000000e-01) (3, 4, 5.00000000000000000000e-01) (3, 4, 5.00000000000000000000e-01) (3, 4, 5.00000000000000000000e-01) (3, 4, 5.00000000000000000000e-01) (3, 4, 5.00000000000000000000e-01) (3, 4, 5.00000000000000000000e-01) (3, 4, 5.00000000000000000000e-01) (3, 4, 5.00000000000000000000e-01) (3, 4, 5.00000000000000000000e-01) (3, 4, 5.00000000000000000000e-01) (3, 4, 5.00000000000000000000e-01) (3, 4, 5.00000000000000000000e-01) (3, 4, 5.00000000000000000000e-01) (3, 4, 5.00000000000000000000e-01) (3, 4, 5.00000000000000000000e-01) (3, 4, 5.00000000000000000000e-01) (3, 4, 5.00000000000000000000e-01) (3, 4, 5.00000000000000000000e-01) (3, 4, 5.00000000000000000000e-01) (3, 4, 5.00000000000000000000e-01) (3, 4, 5.00000000000000000000e-01) (3, 4, 5.00000000000000000000e-01) (3, 4, 5.00000000000000000000e-01) (3, 4, 5.00000000000000000000e-01) (3, 4, 5.00000000000000000000e-01) (3, 4, 5.00000000000000000000e-01) (3, 4, 5.00000000000000000000e-01) (3, 4, 5.00000000000000000000e-01) (3, 4, 5.00000000000000000000e-01) (3, 4, 5.00000000000000000000e-01) (3, 4, 5.00000000000000000000e-01) (3, 4, 5.00000000000000000000e-01) (3, 4, 5.00000000000000000000e-01) (3, 4, 5.00000000000000000000e-01) (3, 4, 5.00000000000000000000e-01) (3, 4, 5.00000000000000000000e-01) (3, 4, 5.00000000000000000000e-01) (3, 4, 5.00000000000000000000e-01) (3, 4, 5.00000000000000000000e-01) (3, 4, 5.00000000000000000000e-01) (3, 4, 5.00000000000000000000e-01) (3, 4, 5.00000000000000000000e-01) (3, 4, 5.00000000000000000000e-01) (3, 4, 5.00000000000000000000e-01) (3, 4, 5.00000000000000000000e-01) (3, 4, 5.00000000000000000000e-01) (3, 4, 5.00000000000000000000e-01) (3, 4, 5.00000000000000000000e-01) (3, 4, 5.00000000000000000000e-01) (3, 4, 5.00000000000000000000e-01) (3, 4, 5.00000000000000000000e-01) (3, 4, 5.00000000000000000000e-01) (3, 4, 5.00000000000000000000e-01) (3, 4, 5.00000000000000000000e-01) (3, 4, 5.00000000000000000000e-01) (3, 4, 5.00000000000000000000e-01) (3, 4, 5.00000000000000000000e-01) (3, 4, 5.00000000000000000000e-01) (3, 4, 5.00000000000000000000e-01) (3, 4, 5.00000000000000000000e-01) (3, 4, 5.00000000000000000000e-01) (3, 4, 5.00000000000000000000e-01) (3, 4, 5.00000000000000000000e-01) (3, 4, 5.00000000000000000000e-01) (3, 4, 5.00000000000000000000e-01) (3, 4, 5.00000000000000000000e-01) (3, 4, 5.00000000000000000000e-01) (3, 4, 5.00000000000000000000e-01) (3, 4, 5.00000000000000000000e-01) (3, 4, 5.00000000000000000000e-01) (3, 4, 5.00000000000000000000e-01) (3, 4, 5.00000000000000000000e-01) (3, 4, 5.00000000000000000000e-01) (3, 4, 5.00000000000000000000e-01) (3, 4, 5.00000000000000000000e-01) (3, 4, 5.00000000000000000000e-01) (3, 4, 5.00000000000000000000e-01) (3, 4, 5.00000000000000000000e-01) (3, 4, 5.00000000000000000000e-01) (3, 4, 5.00000000000000000000e-01) (3, 4, 5.00000000000000000000e-01) (3, 4, 5.00000000000000000000e-01) (3, 4, 5.00000000000000000000e-01) (3, 4, 5.00000000000000000000e-01) (3, 4, 5.00000000000000000000e-01) (3, 4, 5.00000000000000000000e-01) (3, 4, 5.00000000000000000000e-01) (3, 4, 5.00000000000000000000e-01) (3, 4, 5.00000000000000000000e-01) (3, 4, 5.00000000000000000000e-01) (3, 4, 5.00000000000000000000e-01) (3, 4, 5.00000000000000000000e-01) (3, 4, 5.00000000000000000000e-01) (3, 4, 5.00000000000000000000e-01) (3, 4, 5.00000000000000000000e-01) (3, 4, 5.00000000000000000000e-01) (3, 4, 5.00000000000000000000e-01) (3, 4, 5.00000000000000000000e-01) (3, 4, 5.00000000000000000000e-01) (3, 4, 5.00000000000000000000e-01) (3, 4, 5.00000000000000000000e-01) (3, 4, 5.00000000000000000000e-01) (3, 4, 5.00000000000000000000e-01) (3, 4, 5.00000000000000000000e-01) (3, 4, 5.00000000000000000000e-01) (3, 4, 5.00000000000000000000e-01) (3, 4, 5.00000000000000000000e-01) (3, 4, 5.00000000000000000000e-01) (3, 4, 5.00000000000000000000e-01) (3, 4, 5.00000000000000000000e-01) (3, 4, 5.00000000000000000000e-01) (3, 4, 5.00000000000000000000e-01) (3, 4, 5.00000000000000000000e-01) (3, 4, 5.00000000000000000000e-01) (3, 4, 5.00000000000000000000e-01) (3, 4, 5.00000000000000000000e-01) (3, 4, 5.00000000000000000000e-01) (3, 4, 5.00000000000000000000e-01) (3, 4, 5.00000000000000000000e-01) (3, 4, 5.00000000000000000000e-01) (3, 4, 5.00000000000000000000e-01) (3, 4, 5.00000000000000000000e-01) (3, 4, 5.00000000000000000000e-01) (3, 4, 5.00000000000000000000e-01) (3, 4, 5.00000000000000000000e-01) (3, 4, 5.00000000000000000000e-01) (3, 4, 5.00000000000000000000e-01) (3, 4, 5.00000000000000000000e-01) (3, 4, 5.00000000000000000000e-01) (3, 4, 5.00000000000000000000e-01) (3, 4, 5.00000000000000000000e-01) (3, 4, 5.00000000000000000000e-01) (3, 4, 5.00000000000000000000e-01) (3, 4, 5.00000000000000000000e-01) (3, 4, 5.00000000000000000000e-01) (3, 4, 5.00000000000000000000e-01) (3, 4, 5.00000000000000000000e-01) (3, 4, 5.00000000000000000000e-01) (3, 4, 5.00000000000000000000e-01) (3, 4, 5.00000000000000000000e-01) (3, 4, 5.00000000000000000000e-01) (3, 4, 5.00000000000000000000e-01) (3, 4, 5.00000000000000000000e-01) (3, 4, 5.00000000000000000000e-01) (3, 4, 5.00000000000000000000e-01) (3, 4, 5.00000000000000000000e-01) (3, 4, 5.00000000000000000000e-01) (3, 4, 5.00000000000000000000e-01) (3, 4, 5.00000000000000000000e-01) (3, 4, 5.00000000000000000000e-01) (3, 4, 5.00000000000000000000e-01) (3, 4, 5.00000000000000000000e-01) (3, 4, 5.00000000000000000000e-01) (3, 4, 5.00000000000000000000e-01) (3, 4, 5.00000000000000000000e-01) (3, 4, 5.00000000000000000000e-01) (3, 4, 5.00000000000000000000e-01) (3, 4, 5.00000000000000000000e-01) (3, 4, 5.00000000000000000000e-01) (3, 4, 5.00000000000000000000e-01) (3, 4, 5.00000000000000000000e-01) (3, 4, 5.00000000000000000000e-01) (3, 4, 5.00000000000000000000e-01) (3, 4, 5.00000000000000000000e-01) (3, 4, 5.00000000000000000000e-01) (3, 4, 5.00000000000000000000e-01) (3, 4, 5.00000000000000000000e-01) (3, 4, 5.00000000000000000000e-01) (3, 4, 5.00000000000000000000e-01) (3, 4, 5.00000000000000000000e-01) (3, 4, 5.00000000000000000000e-01) (3, 4, 5.00000000000000000000e-01) (3, 4, 5.00000000000000000000e-01) (3, 4, 5.00000000000000000000e-01) (3, 4, 5.00000000000000000000e-01) (3, 4, 5.00000000000000000000e-01) (3, 4, 5.00000000000000000000e-01) (3, 4, 5.00000000000000000000e-01) (3, 4, 5.00000000000000000000e-01) (3, 4, 5.00000000000000000000e-01) (3, 4, 5.00000000000000000000e-01) (3, 4, 5.00000000000000000000e-01) (3, 4, 5.00000000000000000000e-01) (3, 4, 5.00000000000000000000e-01) (3, 4, 5.00000000000000000000e-01) (3, 4, 5.00000000000000000000e-01) (3, 4, 5.00000000000000000000e-01) (3, 4, 5.00000000000000000000e-01) (3, 4, 5.00000000000000000000e-01) (3, 4, 5.00000000000000000000e-01) (3, 4, 5.00000000000000000000e-01) (3, 4, 5.00000000000000000000e-01) (3, 4, 5.00000000000000000000e-01) (3, 4, 5.00000000000000000000e-01) (3, 4, 5.00000000000000000000e-01) (3, 4, 5.00000000000000000000e-01) (3, 4, 5.00000000000000000000e-01) (3, 4, 5.00000000000000000000e-01) (3, 4, 5.00000000000000000000e-01) (3, 4, 5.00000000000000000000e-01) (3, 4, 5.00000000000000000000e-01) (3, 4, 5.00000000000000000000e-01) (3, 4, 5.00000000000000000000e-01) (3, 4, 5.00000000000000000000e-01) (3, 4, 5.00000000000000000000e-01) (3, 4, 5.00000000000000000000e-01) (0, 0, 0.00000000000000000000e+00) (301, 4, 5.00000000000000000000e-01) (301, 4, 5.00000000000000000000e-01) (301, 4, 5.00000000000000000000e-01) (301, 4, 5.00000000000000000000e-01) (301, 4, 5.00000000000000000000e-01) (301, 4, 5.00000000000000000000e-01) (301, 4, 5.00000000000000000000e-01) (301, 4, 5.00000000000000000000e-01) (301, 4, 5.00000000000000000000e-01) (301, 4, 5.00000000000000000000e-01) (301, 4, 5.00000000000000000000e-01) (301, 4, 5.00000000000000000000e-01) (301, 4, 5.00000000000000000000e-01) (301, 4, 5.00000000000000000000e-01) (301, 4, 5.00000000000000000000e-01) (301, 4, 5.00000000000000000000e-01) (301, 4, 5.00000000000000000000e-01) (301, 4, 5.00000000000000000000e-01) (301, 4, 5.00000000000000000000e-01) (301, 4, 5.00000000000000000000e-01) (301, 4, 5.00000000000000000000e-01) (301, 4, 5.00000000000000000000e-01) (301, 4, 5.00000000000000000000e-01) (301, 4, 5.00000000000000000000e-01) (301, 4, 5.00000000000000000000e-01) (301, 4, 5.00000000000000000000e-01) (301, 4, 5.00000000000000000000e-01) (301, 4, 5.00000000000000000000e-01) (301, 4, 5.00000000000000000000e-01) (301, 4, 5.00000000000000000000e-01) (301, 4, 5.00000000000000000000e-01) (301, 4, 5.00000000000000000000e-01) (301, 4, 5.00000000000000000000e-01) (301, 4, 5.00000000000000000000e-01) (301, 4, 5.00000000000000000000e-01) (301, 4, 5.00000000000000000000e-01) (301, 4, 5.00000000000000000000e-01) (301, 4, 5.00000000000000000000e-01) (301, 4, 5.00000000000000000000e-01) (301, 4, 5.00000000000000000000e-01) (301, 4, 5.00000000000000000000e-01) (301, 4, 5.00000000000000000000e-01) (301, 4, 5.00000000000000000000e-01) (301, 4, 5.00000000000000000000e-01) (301, 4, 5.00000000000000000000e-01) (301, 4, 5.00000000000000000000e-01) (301, 4, 5.00000000000000000000e-01) (301, 4, 5.00000000000000000000e-01) (301, 4, 5.00000000000000000000e-01) (301, 4, 5.00000000000000000000e-01) (301, 4, 5.00000000000000000000e-01) (301, 4, 5.00000000000000000000e-01) (301, 4, 5.00000000000000000000e-01) (301, 4, 5.00000000000000000000e-01) (301, 4, 5.00000000000000000000e-01) (301, 4, 5.00000000000000000000e-01) (301, 4, 5.00000000000000000000e-01) (301, 4, 5.00000000000000000000e-01) (301, 4, 5.00000000000000000000e-01) (301, 4, 5.00000000000000000000e-01) (301, 4, 5.00000000000000000000e-01) (301, 4, 5.00000000000000000000e-01) (301, 4, 5.00000000000000000000e-01) (301, 4, 5.00000000000000000000e-01) (301, 4, 5.00000000000000000000e-01) (301, 4, 5.00000000000000000000e-01) (301, 4, 5.00000000000000000000e-01) (301, 4, 5.00000000000000000000e-01) (301, 4, 5.00000000000000000000e-01) (301, 4, 5.00000000000000000000e-01) (301, 4, 5.00000000000000000000e-01) (301, 4, 5.00000000000000000000e-01) (301, 4, 5.00000000000000000000e-01) (301, 4, 5.00000000000000000000e-01) (301, 4, 5.00000000000000000000e-01) (301, 4, 5.00000000000000000000e-01) (301, 4, 5.00000000000000000000e-01) (301, 4, 5.00000000000000000000e-01) (301, 4, 5.00000000000000000000e-01) (301, 4, 5.00000000000000000000e-01) (301, 4, 5.00000000000000000000e-01) (301, 4, 5.00000000000000000000e-01) (301, 4, 5.00000000000000000000e-01) (301, 4, 5.00000000000000000000e-01) (301, 4, 5.00000000000000000000e-01) (301, 4, 5.00000000000000000000e-01) (301, 4, 5.00000000000000000000e-01) (301, 4, 5.00000000000000000000e-01) (301, 4, 5.00000000000000000000e-01) (301, 4, 5.00000000000000000000e-01) (301, 4, 5.00000000000000000000e-01) (301, 4, 5.00000000000000000000e-01) (301, 4, 5.00000000000000000000e-01) (301, 4, 5.00000000000000000000e-01) (301, 4, 5.00000000000000000000e-01) (301, 4, 5.00000000000000000000e-01) (301, 4, 5.00000000000000000000e-01) (301, 4, 5.00000000000000000000e-01) (301, 4, 5.00000000000000000000e-01) (301, 4, 5.00000000000000000000e-01) (0, 0, 0.00000000000000000000e+00) (101, 4, 5.00000000000000000000e-01) (101, 4, 5.00000000000000000000e-01) (101, 4, 5.00000000000000000000e-01) (0, 0, 0.00000000000000000000e+00) 
connections (connected_to_neuron, weight)=(0, 1.88560342788696289062e+00) (1, 1.27109766006469726562e+00) (2, -4.13741797208786010742e-01) (0, 2.00822019577026367188e+00) (1, 1.24797630310058593750e+00) (2, -2.98512905836105346680e-01) (0, 1.82608199119567871094e+00) (1, 1.33104109764099121094e+00) (2, -4.58687156438827514648e-01) (0, 1.43292880058288574219e+00) (1, 5.68457961082458496094e-01) (2, -1.65773153305053710938e-01) (0, 1.84880542755126953125e+00) (1, 1.23803782463073730469e+00) (2, -3.07006156072020530701e-03) (0, 1.33037495613098144531e+00) (1, 5.51566243171691894531e-01) (2, -4.98837381601333618164e-02) (0, 5.02226829528808593750e+00) (1, 1.10188257694244384766e+00) (2, -1.68445420265197753906e+00) (0, 2.45173025131225585938e+00) (1, -6.94305658340454101562e+00) (2, -2.06974931061267852783e-02) (0, 1.81987833976745605469e+00) (1, 1.22262823581695556641e+00) (2, -2.75779813528060913086e-01) (0, 1.98951113224029541016e+00) (1, 1.29012167453765869141e+00) (2, -3.53107124567031860352e-01) (0, 3.02649188041687011719e+00) (1, -7.55661106109619140625e+00) (2, -1.16138905286788940430e-01) (0, 2.10139393806457519531e+00) (1, 1.17356860637664794922e+00) (2, -3.60060781240463256836e-01) (0, 2.67030191421508789062e+00) (1, -7.31635093688964843750e+00) (2, -4.85218539834022521973e-02) (0, 2.78797817230224609375e+00) (1, -7.38321781158447265625e+00) (2, -8.31981599330902099609e-02) (0, 2.47447443008422851562e+00) (1, -7.15352964401245117188e+00) (2, 1.48349285125732421875e-01) (0, 2.09096908569335937500e+00) (1, 1.20967578887939453125e+00) (2, -4.08896297216415405273e-01) (0, 1.92721462249755859375e+00) (1, 1.17081439495086669922e+00) (2, -3.43094140291213989258e-01) (0, 2.63832902908325195312e+00) (1, -6.69007730484008789062e+00) (2, -1.51105970144271850586e-01) (0, 2.08605194091796875000e+00) (1, 1.21055448055267333984e+00) (2, -4.61157143115997314453e-01) (0, 2.81177663803100585938e+00) (1, -7.34303617477416992188e+00) (2, -1.11694186925888061523e-01) (0, 2.85469365119934082031e+00) (1, -7.56059741973876953125e+00) (2, -1.67870536446571350098e-01) (0, 1.82262635231018066406e+00) (1, 1.24516868591308593750e+00) (2, -3.25501531362533569336e-01) (0, 2.06301259994506835938e+00) (1, 1.29674899578094482422e+00) (2, -4.27573978900909423828e-01) (0, 1.39001190662384033203e+00) (1, -2.04352885484695434570e-01) (2, 8.90631750226020812988e-02) (0, 1.96910798549652099609e+00) (1, 1.34413611888885498047e+00) (2, -3.80140691995620727539e-01) (0, 1.95632386207580566406e+00) (1, 1.28799855709075927734e+00) (2, -4.53256070613861083984e-01) (0, 1.81642818450927734375e+00) (1, 1.28594088554382324219e+00) (2, -3.69062721729278564453e-01) (0, 2.82208228111267089844e+00) (1, -7.28843212127685546875e+00) (2, -1.16826772689819335938e-01) (0, 1.96885383129119873047e+00) (1, 1.25023066997528076172e+00) (2, -3.86465638875961303711e-01) (0, 2.48244643211364746094e+00) (1, -6.54124784469604492188e+00) (2, -1.23503111302852630615e-01) (0, 2.25043988227844238281e+00) (1, -6.24166584014892578125e+00) (2, -1.24779686331748962402e-01) (0, 1.65923130512237548828e+00) (1, 1.15822076797485351562e+00) (2, -1.17997355759143829346e-01) (0, 1.42569112777709960938e+00) (1, 5.60604274272918701172e-01) (2, -1.34080842137336730957e-01) (0, 2.90174961090087890625e+00) (1, -7.30417585372924804688e+00) (2, -1.77322536706924438477e-01) (0, 2.68550801277160644531e+00) (1, -6.54570436477661132812e+00) (2, -2.16975152492523193359e-01) (0, 2.44694900512695312500e+00) (1, -7.37827110290527343750e+00) (2, 8.11822861433029174805e-02) (0, 1.92032027244567871094e+00) (1, 1.32100629806518554688e+00) (2, -5.26022911071777343750e-01) (0, 1.91666436195373535156e+00) (1, 1.21744561195373535156e+00) (2, -4.29753392934799194336e-01) (0, 5.02390432357788085938e+00) (1, 7.42201387882232666016e-01) (2, -1.35876369476318359375e+00) (0, 2.52326583862304687500e+00) (1, -5.61074495315551757812e+00) (2, -3.07372838258743286133e-01) (0, 1.97179651260375976562e+00) (1, 1.38177478313446044922e+00) (2, -3.39859187602996826172e-01) (0, 1.60081958770751953125e+00) (1, 1.20973002910614013672e+00) (2, -2.04850718379020690918e-01) (0, 1.72909474372863769531e+00) (1, 8.64793360233306884766e-02) (2, -4.93233293294906616211e-01) (0, 2.32188630104064941406e+00) (1, -6.10539054870605468750e+00) (2, -1.53802320361137390137e-01) (0, 2.66855406761169433594e+00) (1, -6.71112298965454101562e+00) (2, -1.67836561799049377441e-01) (0, 1.08624100685119628906e+00) (1, -3.78956943750381469727e-01) (2, 3.31128537654876708984e-01) (0, 1.39490246772766113281e+00) (1, 2.32867807149887084961e-01) (2, 2.11041167378425598145e-01) (0, 1.69164872169494628906e+00) (1, 1.16908514499664306641e+00) (2, -4.55101311206817626953e-01) (0, 1.84086441993713378906e+00) (1, 1.11352193355560302734e+00) (2, 1.50099126622080802917e-02) (0, 2.23148226737976074219e+00) (1, -6.28738737106323242188e+00) (2, 8.84613841772079467773e-02) (0, 2.24498891830444335938e+00) (1, -6.18308830261230468750e+00) (2, -1.50474131107330322266e-01) (0, 2.73155355453491210938e+00) (1, -7.25311088562011718750e+00) (2, -1.27562433481216430664e-01) (0, 1.85647845268249511719e+00) (1, 1.09438323974609375000e+00) (2, -4.74857121706008911133e-01) (0, 2.01724338531494140625e+00) (1, 1.26422369480133056641e+00) (2, -3.77163738012313842773e-01) (0, 1.65771639347076416016e+00) (1, 1.45243811607360839844e+00) (2, -6.25676512718200683594e-01) (0, 2.45702815055847167969e+00) (1, -7.27580404281616210938e+00) (2, 3.35975810885429382324e-02) (0, 3.17685055732727050781e+00) (1, 1.08302555084228515625e+01) (2, -1.08948373794555664062e+01) (0, 2.04502439498901367188e+00) (1, 1.16371476650238037109e+00) (2, -3.60353380441665649414e-01) (0, 2.53566122055053710938e+00) (1, -7.02781295776367187500e+00) (2, -7.15634301304817199707e-02) (0, 1.68477153778076171875e+00) (1, 7.26491361856460571289e-02) (2, -4.06971335411071777344e-01) (0, 1.29299676418304443359e+00) (1, 2.92776793241500854492e-01) (2, 2.14165985584259033203e-01) (0, 1.45483863353729248047e+00) (1, 1.15724325180053710938e+00) (2, -1.92573010921478271484e-01) (0, 1.39591526985168457031e+00) (1, 5.62488079071044921875e-01) (2, -1.31930336356163024902e-01) (0, 2.44576668739318847656e+00) (1, 1.71420347690582275391e+00) (2, -3.08028721809387207031e+00) (0, 2.04113960266113281250e+00) (1, 1.15843963623046875000e+00) (2, -3.52581888437271118164e-01) (0, 2.93265247344970703125e+00) (1, -6.47067213058471679688e+00) (2, -3.89969825744628906250e-01) (0, 3.02559590339660644531e+00) (1, -7.57679462432861328125e+00) (2, -9.14178639650344848633e-02) (0, 2.46289777755737304688e+00) (1, -6.09433031082153320312e+00) (2, -2.76228040456771850586e-01) (0, 2.76381945610046386719e+00) (1, -7.06214332580566406250e+00) (2, -1.28674760460853576660e-01) (0, 1.99004983901977539062e+00) (1, 1.45058763027191162109e+00) (2, -8.11409592628479003906e-01) (0, 2.64950919151306152344e+00) (1, -5.95208883285522460938e+00) (2, -4.16194111108779907227e-01) (0, 1.45473730564117431641e+00) (1, 9.77411866188049316406e-01) (2, -5.56554675102233886719e-01) (0, 1.39273536205291748047e+00) (1, 3.15882176160812377930e-01) (2, 1.38229861855506896973e-01) (0, 3.02903151512145996094e+00) (1, -7.57194423675537109375e+00) (2, -1.05158150196075439453e-01) (0, 2.80286502838134765625e+00) (1, -6.15634346008300781250e+00) (2, -3.06642562150955200195e-01) (0, 1.85618281364440917969e+00) (1, 1.17629182338714599609e+00) (2, -2.91752964258193969727e-01) (0, 1.38608407974243164062e+00) (1, 8.90270829200744628906e-01) (2, 3.44385892152786254883e-01) (0, 1.83380579948425292969e+00) (1, 1.26749920845031738281e+00) (2, -3.91999363899230957031e-01) (0, 1.53708922863006591797e+00) (1, 1.54766726493835449219e+00) (2, -5.18920183181762695312e-01) (0, 2.03844857215881347656e+00) (1, 1.20844697952270507812e+00) (2, -3.18929761648178100586e-01) (0, 2.43066048622131347656e+00) (1, -7.14397764205932617188e+00) (2, 2.08501875400543212891e-01) (0, 2.47821974754333496094e+00) (1, -6.34139156341552734375e+00) (2, -1.40574946999549865723e-01) (0, 1.14064264297485351562e+00) (1, -1.24754048883914947510e-01) (2, 3.16974401473999023438e-01) (0, 1.33360648155212402344e+00) (1, 1.45175027847290039062e+00) (2, -8.34725618362426757812e-01) (0, 2.77853131294250488281e+00) (1, -7.38884449005126953125e+00) (2, -9.57439839839935302734e-02) (0, 6.42026853561401367188e+00) (1, -2.10635623931884765625e+01) (2, -9.29588496685028076172e-01) (0, 2.26402425765991210938e+00) (1, -6.19662380218505859375e+00) (2, -1.39575675129890441895e-01) (0, 1.32441997528076171875e+00) (1, 1.12862122058868408203e+00) (2, -1.16853535175323486328e-01) (0, 1.99442529678344726562e+00) (1, 1.16904759407043457031e+00) (2, -3.00198048353195190430e-01) (0, 1.45146131515502929688e+00) (1, 1.30207991600036621094e+00) (2, -3.08856904506683349609e-01) (0, 1.68569922447204589844e+00) (1, 1.48449778556823730469e+00) (2, -8.43372046947479248047e-01) (0, 2.07474493980407714844e+00) (1, 1.17101442813873291016e+00) (2, -4.28494304418563842773e-01) (0, 1.82435679435729980469e+00) (1, 1.48972368240356445312e+00) (2, -5.47056853771209716797e-01) (0, 1.40394675731658935547e+00) (1, -1.89127832651138305664e-01) (2, 1.50044918060302734375e-01) (0, 2.34954738616943359375e+00) (1, -6.10336542129516601562e+00) (2, -1.75209134817123413086e-01) (0, 1.71994411945343017578e+00) (1, 1.16923177242279052734e+00) (2, -4.60123777389526367188e-01) (0, 2.01421666145324707031e+00) (1, 1.23582816123962402344e+00) (2, -2.83753424882888793945e-01) (0, 1.94949007034301757812e+00) (1, 1.30363774299621582031e+00) (2, -4.65060591697692871094e-01) (0, 1.94404482841491699219e+00) (1, 1.35247385501861572266e+00) (2, -3.78450304269790649414e-01) (0, 2.04952239990234375000e+00) (1, 1.15764153003692626953e+00) (2, -3.07205349206924438477e-01) (0, 2.03619265556335449219e+00) (1, 1.22617173194885253906e+00) (2, -3.25767606496810913086e-01) (0, 2.70295310020446777344e+00) (1, -7.04860639572143554688e+00) (2, -1.98424518108367919922e-01) (0, 2.33651995658874511719e+00) (1, -6.14935636520385742188e+00) (2, -2.48049959540367126465e-01) (0, -1.24983768463134765625e+01) (1, 2.64274549484252929688e+00) (2, -4.81834083795547485352e-01) (0, 2.80247426033020019531e+00) (1, -7.47880983352661132812e+00) (2, -6.11488819122314453125e-02) (0, 2.66801929473876953125e+00) (1, -6.69620561599731445312e+00) (2, -1.65655910968780517578e-01) (0, 1.20664250850677490234e+00) (1, -1.97916537523269653320e-01) (2, 2.95129835605621337891e-01) (0, 2.06081342697143554688e+00) (1, 1.24895811080932617188e+00) (2, -4.15960937738418579102e-01) (0, 1.61220359802246093750e+00) (1, 3.53430569171905517578e-01) (2, -5.00021874904632568359e-02) (0, 1.36155772209167480469e+00) (1, -1.80296450853347778320e-01) (2, 1.08037628233432769775e-01) (0, 2.78985214233398437500e+00) (1, -7.28129577636718750000e+00) (2, -1.56129106879234313965e-01) (0, 2.46098208427429199219e+00) (1, -6.24461364746093750000e+00) (2, -2.38677442073822021484e-01) (0, 2.09443354606628417969e+00) (1, -1.48801758885383605957e-01) (2, -4.58527594804763793945e-01) (0, 2.77025866508483886719e+00) (1, -7.37850284576416015625e+00) (2, -6.81646317243576049805e-02) (0, 4.90525150299072265625e+00) (1, 2.39206910133361816406e+00) (2, -5.08452463150024414062e+00) (0, 1.61342108249664306641e+00) (1, 1.42374670505523681641e+00) (2, -5.21483659744262695312e-01) (0, 2.06665492057800292969e+00) (1, 1.13488924503326416016e+00) (2, -3.54680627584457397461e-01) (0, 1.87241005897521972656e+00) (1, 1.21012437343597412109e+00) (2, -3.80683869123458862305e-01) (0, 1.35947632789611816406e+00) (1, 5.95549643039703369141e-01) (2, -1.43823102116584777832e-01) (0, 2.88245177268981933594e+00) (1, -7.53688287734985351562e+00) (2, -2.03472331166267395020e-01) (0, 2.52674436569213867188e+00) (1, -6.60418128967285156250e+00) (2, -9.25090312957763671875e-02) (0, 1.65713489055633544922e+00) (1, 1.08406746387481689453e+00) (2, -7.38040864467620849609e-01) (0, 2.92583584785461425781e+00) (1, -7.58859062194824218750e+00) (2, -9.28452536463737487793e-02) (0, 1.16631412506103515625e+00) (1, -2.42990031838417053223e-01) (2, 3.98692786693572998047e-01) (0, 2.72946619987487792969e+00) (1, -7.21942234039306640625e+00) (2, -1.39689400792121887207e-01) (0, -9.83627796173095703125e+00) (1, 2.55039930343627929688e+00) (2, -1.59538698196411132812e+00) (0, 1.41739892959594726562e+00) (1, 5.96605777740478515625e-01) (2, -1.96382179856300354004e-01) (0, 2.73976421356201171875e+00) (1, -7.30675315856933593750e+00) (2, -6.74453228712081909180e-02) (0, 1.80269050598144531250e+00) (1, 1.26517057418823242188e+00) (2, -3.56294453144073486328e-01) (0, 2.77299284934997558594e+00) (1, -7.05968379974365234375e+00) (2, -1.98855981230735778809e-01) (0, 2.45956158638000488281e+00) (1, -7.39938449859619140625e+00) (2, 6.88588097691535949707e-02) (0, 2.39649844169616699219e+00) (1, 2.08203649520874023438e+00) (2, -3.59838676452636718750e+00) (0, 2.01709246635437011719e+00) (1, 1.27953398227691650391e+00) (2, -6.64832830429077148438e-01) (0, 2.27569866180419921875e+00) (1, -6.20212650299072265625e+00) (2, -1.71097978949546813965e-01) (0, 1.94710648059844970703e+00) (1, 4.73451584577560424805e-01) (2, -8.75134766101837158203e-01) (0, 2.49756264686584472656e+00) (1, -6.32766437530517578125e+00) (2, -1.92808628082275390625e-01) (0, 2.78716802597045898438e+00) (1, -7.37723398208618164062e+00) (2, -7.66375735402107238770e-02) (0, 1.98285722732543945312e+00) (1, 1.24026715755462646484e+00) (2, -5.00160753726959228516e-01) (0, 2.31087732315063476562e+00) (1, -6.31216096878051757812e+00) (2, -2.99621671438217163086e-02) (0, 2.41149902343750000000e+00) (1, -7.27290439605712890625e+00) (2, 5.76850660145282745361e-02) (0, 1.49783349037170410156e+00) (1, 1.38305521011352539062e+00) (2, -3.59930813312530517578e-01) (0, 1.88348531723022460938e+00) (1, 1.27431344985961914062e+00) (2, -4.39765632152557373047e-01) (0, 1.87574028968811035156e+00) (1, 1.24770581722259521484e+00) (2, -3.69911700487136840820e-01) (0, 5.04430341720581054688e+00) (1, 7.21234142780303955078e-01) (2, -1.39968872070312500000e+00) (0, 2.50958681106567382812e+00) (1, -7.35265254974365234375e+00) (2, 3.68661582469940185547e-02) (0, 2.12288141250610351562e+00) (1, 1.14520084857940673828e+00) (2, -3.65214079618453979492e-01) (0, 1.86765956878662109375e+00) (1, 1.18269193172454833984e+00) (2, -3.34723025560379028320e-01) (0, 1.52003383636474609375e+00) (1, 5.20119011402130126953e-01) (2, -2.19663068652153015137e-01) (0, 2.24847507476806640625e+00) (1, -6.27106142044067382812e+00) (2, 7.12987110018730163574e-02) (0, 2.04980659484863281250e+00) (1, 1.23117184638977050781e+00) (2, -3.75740975141525268555e-01) (0, 2.59671378135681152344e+00) (1, -7.54507303237915039062e+00) (2, -1.63100838661193847656e-01) (0, 1.82172477245330810547e+00) (1, 1.65569889545440673828e+00) (2, -8.02545964717864990234e-01) (0, 2.42775654792785644531e+00) (1, -7.33931350708007812500e+00) (2, 8.61405804753303527832e-02) (0, 1.86253952980041503906e+00) (1, 1.18232834339141845703e+00) (2, -2.98035949468612670898e-01) (0, 6.50963783264160156250e+00) (1, 2.14703392982482910156e+00) (2, -5.18827056884765625000e+00) (0, 2.60945677757263183594e+00) (1, -6.67166566848754882812e+00) (2, -2.14442223310470581055e-01) (0, 1.94771623611450195312e+00) (1, 1.40015399456024169922e+00) (2, -4.42151486873626708984e-01) (0, 1.78565990924835205078e+00) (1, 1.71660089492797851562e+00) (2, -2.89782738685607910156e+00) (0, 1.57269585132598876953e+00) (1, 1.20811498165130615234e+00) (2, 8.99284929037094116211e-02) (0, 2.69870662689208984375e+00) (1, -7.25319576263427734375e+00) (2, -9.44495648145675659180e-02) (0, 2.51119089126586914062e+00) (1, -6.45504188537597656250e+00) (2, -5.82633018493652343750e-02) (0, 1.92794895172119140625e+00) (1, 1.41138744354248046875e+00) (2, -6.17174565792083740234e-01) (0, 1.39525556564331054688e+00) (1, 7.61851251125335693359e-01) (2, 3.81258517503738403320e-01) (0, 1.50206828117370605469e+00) (1, 8.48225593566894531250e-01) (2, 3.26368361711502075195e-01) (0, 2.05736470222473144531e+00) (1, 1.24624729156494140625e+00) (2, -3.52318912744522094727e-01) (0, 1.17821884155273437500e+00) (1, -2.48865246772766113281e-01) (2, 3.99841666221618652344e-01) (0, 2.05264210700988769531e+00) (1, 1.17406761646270751953e+00) (2, -3.20345908403396606445e-01) (0, 1.67698121070861816406e+00) (1, 1.18347227573394775391e+00) (2, -4.10510480403900146484e-01) (0, 2.86190962791442871094e+00) (1, -6.90134620666503906250e+00) (2, -3.03246706724166870117e-01) (0, 2.25042581558227539062e+00) (1, -6.05385112762451171875e+00) (2, -4.15622442960739135742e-02) (0, 2.06986308097839355469e+00) (1, 1.22573065757751464844e+00) (2, -3.91612499952316284180e-01) (0, 2.34904909133911132812e+00) (1, -6.29102802276611328125e+00) (2, -1.06100089848041534424e-01) (0, 5.40572023391723632812e+00) (1, 3.20932722091674804688e+00) (2, -6.14890718460083007812e+00) (0, 2.80938839912414550781e+00) (1, -7.45650911331176757812e+00) (2, -8.45368504524230957031e-02) (0, 2.25952219963073730469e+00) (1, -6.04522180557250976562e+00) (2, -7.01003745198249816895e-02) (0, 2.76371216773986816406e+00) (1, -5.66088151931762695312e+00) (2, -6.21867299079895019531e-01) (0, 1.61683273315429687500e+00) (1, 1.43813002109527587891e+00) (2, -5.57390213012695312500e-01) (0, 2.07682561874389648438e+00) (1, 1.24107265472412109375e+00) (2, -4.44925963878631591797e-01) (0, 2.02382111549377441406e+00) (1, 1.23343992233276367188e+00) (2, -3.47448259592056274414e-01) (0, 2.00673055648803710938e+00) (1, 1.29116547107696533203e+00) (2, -3.69929283857345581055e-01) (0, 1.47113490104675292969e+00) (1, 2.76806414127349853516e-01) (2, -2.53481894731521606445e-01) (0, 1.34340345859527587891e+00) (1, -8.82538929581642150879e-02) (2, 6.56697973608970642090e-02) (0, 2.76758241653442382812e+00) (1, -7.31260538101196289062e+00) (2, -8.39633345603942871094e-02) (0, 2.45776605606079101562e+00) (1, -6.95026063919067382812e+00) (2, -2.06554122269153594971e-02) (0, 2.79269099235534667969e+00) (1, -7.30558109283447265625e+00) (2, -8.52571725845336914062e-02) (0, 2.75924158096313476562e+00) (1, -7.25069713592529296875e+00) (2, -1.57680407166481018066e-01) (0, 2.47390604019165039062e+00) (1, 2.05511379241943359375e+00) (2, -3.59262084960937500000e+00) (0, 1.73803091049194335938e+00) (1, 1.32070943713188171387e-01) (2, -5.21443128585815429688e-01) (0, 2.79211568832397460938e+00) (1, -7.28341293334960937500e+00) (2, -1.58694609999656677246e-01) (0, 1.81604671478271484375e+00) (1, 1.23299288749694824219e+00) (2, -3.51643532514572143555e-01) (0, 2.49226737022399902344e+00) (1, -7.34115505218505859375e+00) (2, 1.63912437856197357178e-02) (0, 1.71221208572387695312e+00) (1, 1.29337370395660400391e+00) (2, -4.48676556348800659180e-01) (0, 2.01842188835144042969e+00) (1, 1.21905815601348876953e+00) (2, -4.04500991106033325195e-01) (0, 1.33222448825836181641e+00) (1, 2.58969634771347045898e-01) (2, 2.08626359701156616211e-01) (0, 2.36697435379028320312e+00) (1, -6.04569578170776367188e+00) (2, -2.54280149936676025391e-01) (0, 1.58052527904510498047e+00) (1, 1.26290380954742431641e+00) (2, -9.33482408523559570312e-01) (0, 2.37221288681030273438e+00) (1, -6.05814647674560546875e+00) (2, -2.53673136234283447266e-01) (0, 2.03032898902893066406e+00) (1, 1.21245336532592773438e+00) (2, -3.52347403764724731445e-01) (0, 2.41536045074462890625e+00) (1, -6.90716981887817382812e+00) (2, -5.39878103882074356079e-03) (0, 2.03593039512634277344e+00) (1, 1.23825502395629882812e+00) (2, -3.18838924169540405273e-01) (0, 2.77283287048339843750e+00) (1, -7.40948152542114257812e+00) (2, -7.70388543605804443359e-02) (0, 1.86898374557495117188e+00) (1, 9.31767940521240234375e-01) (2, -1.76631763577461242676e-01) (0, 2.79595637321472167969e+00) (1, -7.28476095199584960938e+00) (2, -1.50244936347007751465e-01) (0, 2.82239842414855957031e+00) (1, -7.40690946578979492188e+00) (2, -1.08679123222827911377e-01) (0, 1.49373638629913330078e+00) (1, 9.66946780681610107422e-01) (2, -5.47075092792510986328e-01) (0, 1.96927547454833984375e+00) (1, 1.35148513317108154297e+00) (2, -5.53639471530914306641e-01) (0, 1.17093384265899658203e+00) (1, -2.64564484357833862305e-01) (2, 3.69151949882507324219e-01) (0, 2.38183236122131347656e+00) (1, -6.03794860839843750000e+00) (2, -1.38595223426818847656e-01) (0, 2.63711667060852050781e+00) (1, -7.05783891677856445312e+00) (2, -1.31823748350143432617e-01) (0, 1.86211705207824707031e+00) (1, 1.29197204113006591797e+00) (2, -3.67359131574630737305e-01) (0, 2.10302972793579101562e+00) (1, 1.25178182125091552734e+00) (2, -4.68236178159713745117e-01) (0, 1.71096062660217285156e+00) (1, 1.15965867042541503906e+00) (2, -3.96471381187438964844e-01) (0, 1.34120678901672363281e+00) (1, 5.55583119392395019531e-01) (2, -7.26313516497611999512e-02) (0, 2.01938748359680175781e+00) (1, 1.16941630840301513672e+00) (2, -3.21928530931472778320e-01) (0, 2.53072047233581542969e+00) (1, -6.55006742477416992188e+00) (2, -1.68028771877288818359e-01) (0, 2.82626128196716308594e+00) (1, -7.32611417770385742188e+00) (2, -1.59916505217552185059e-01) (0, 2.03986144065856933594e+00) (1, 1.22765338420867919922e+00) (2, -3.41889947652816772461e-01) (0, 1.63671004772186279297e+00) (1, 1.24831199645996093750e+00) (2, -4.22966718673706054688e-01) (0, 2.08610725402832031250e+00) (1, 1.26325941085815429688e+00) (2, -4.24943566322326660156e-01) (0, 1.78677701950073242188e+00) (1, 1.26472675800323486328e+00) (2, -3.10909122228622436523e-01) (0, 2.85643720626831054688e+00) (1, -7.28489160537719726562e+00) (2, -1.49505734443664550781e-01) (0, 1.53163111209869384766e+00) (1, 9.23332631587982177734e-01) (2, -5.05018830299377441406e-01) (0, 1.84909987449645996094e+00) (1, 1.25187754631042480469e+00) (2, -4.00542318820953369141e-01) (0, 1.27170145511627197266e+00) (1, 3.20779114961624145508e-01) (2, 2.18329265713691711426e-01) (0, 2.07272577285766601562e+00) (1, 1.23818922042846679688e+00) (2, -4.36949402093887329102e-01) (0, 3.89114904403686523438e+00) (1, -1.04747600555419921875e+01) (2, -1.01213109493255615234e+00) (0, 1.95970427989959716797e+00) (1, 1.39572060108184814453e+00) (2, -4.56242829561233520508e-01) (0, 1.86330628395080566406e+00) (1, 2.22634911537170410156e+00) (2, -3.31342291831970214844e+00) (0, 1.79351115226745605469e+00) (1, 1.27107417583465576172e+00) (2, -5.89234292507171630859e-01) (0, 2.66443991661071777344e+00) (1, -7.16821384429931640625e+00) (2, -7.88831934332847595215e-02) (0, 1.67006933689117431641e+00) (1, 1.22594285011291503906e+00) (2, -4.30000483989715576172e-01) (0, 1.88811826705932617188e+00) (1, 1.24679541587829589844e+00) (2, -3.68375211954116821289e-01) (0, 2.03868389129638671875e+00) (1, 1.27489495277404785156e+00) (2, -3.91410797834396362305e-01) (0, 1.88339018821716308594e+00) (1, 1.30483627319335937500e+00) (2, -4.63177800178527832031e-01) (0, 1.67694592475891113281e+00) (1, 1.04410600662231445312e+00) (2, -6.95998013019561767578e-01) (0, 1.89077448844909667969e+00) (1, 1.25523304939270019531e+00) (2, -3.71796041727066040039e-01) (0, 2.90755105018615722656e+00) (1, -7.46977376937866210938e+00) (2, -1.61279082298278808594e-01) (0, 2.67163348197937011719e+00) (1, -6.96049642562866210938e+00) (2, -1.48752853274345397949e-01) (0, 1.50290703773498535156e+00) (1, 2.81027317047119140625e-01) (2, -2.71950334310531616211e-01) (0, 2.17609024047851562500e+00) (1, 1.14027464389801025391e+00) (2, -4.03411239385604858398e-01) (0, 1.47930169105529785156e+00) (1, 1.40968751907348632812e+00) (2, -3.39369535446166992188e-01) (0, 1.54477322101593017578e+00) (1, 9.85657989978790283203e-01) (2, -6.28877758979797363281e-01) (0, 2.02257609367370605469e+00) (1, 1.22558760643005371094e+00) (2, -3.13561648130416870117e-01) (0, 2.86416530609130859375e+00) (1, -7.32173490524291992188e+00) (2, -1.87816932797431945801e-01) (0, 1.40154886245727539062e+00) (1, -1.52623921632766723633e-01) (2, 6.82396516203880310059e-02) (0, 2.52983498573303222656e+00) (1, -7.35697174072265625000e+00) (2, 1.02099240757524967194e-03) (0, 1.84893774986267089844e+00) (1, 1.24216222763061523438e+00) (2, -3.80174726247787475586e-01) (0, 2.07091403007507324219e+00) (1, 1.20168745517730712891e+00) (2, -3.85578900575637817383e-01) (0, 2.50618672370910644531e+00) (1, -6.57198476791381835938e+00) (2, -1.28815427422523498535e-01) (0, 2.07086157798767089844e+00) (1, 1.20778119564056396484e+00) (2, -3.60623210668563842773e-01) (0, 1.82452845573425292969e+00) (1, 1.25496113300323486328e+00) (2, -3.31529527902603149414e-01) (0, 2.73471450805664062500e+00) (1, -5.67188978195190429688e+00) (2, -5.24938821792602539062e-01) (0, 2.78869271278381347656e+00) (1, -7.08893299102783203125e+00) (2, -1.94515764713287353516e-01) (0, 1.66637885570526123047e+00) (1, 1.47672879695892333984e+00) (2, -6.68264210224151611328e-01) (0, 1.18236470222473144531e+00) (1, -3.68098229169845581055e-01) (2, 1.98558524250984191895e-01) (0, 2.56385636329650878906e+00) (1, -7.34474611282348632812e+00) (2, -3.59368845820426940918e-02) (0, 1.94310283660888671875e+00) (1, 1.24158966541290283203e+00) (2, -3.40344995260238647461e-01) (0, 2.11955380439758300781e+00) (1, 1.10463058948516845703e+00) (2, -4.00073260068893432617e-01) (0, 3.29764485359191894531e+00) (1, -4.05747509002685546875e+00) (2, -1.16224563121795654297e+00) (0, 2.52725505828857421875e+00) (1, -7.10747289657592773438e+00) (2, -6.16614297032356262207e-02) (0, 1.53941845893859863281e+00) (1, 1.30801045894622802734e+00) (2, -3.56077462434768676758e-01) (0, 1.83352589607238769531e+00) (1, 1.26336002349853515625e+00) (2, -3.41759294271469116211e-01) (0, 1.51201796531677246094e+00) (1, 5.39844930171966552734e-01) (2, -1.96344941854476928711e-01) (0, 3.06793117523193359375e+00) (1, -7.56058216094970703125e+00) (2, -1.50499895215034484863e-01) (0, 1.51018416881561279297e+00) (1, 1.33130013942718505859e+00) (2, -4.99158829450607299805e-01) (0, 2.04372692108154296875e+00) (1, 1.23135387897491455078e+00) (2, -3.28677386045455932617e-01) (0, 2.09443044662475585938e+00) (1, 1.21560204029083251953e+00) (2, -4.66858953237533569336e-01) (0, 7.92808008193969726562e+00) (1, 2.09419655799865722656e+00) (2, -6.27488756179809570312e+00) (0, 2.76606678962707519531e+00) (1, -7.29433631896972656250e+00) (2, -1.36771738529205322266e-01) (0, 2.59834527969360351562e+00) (1, -6.16679430007934570312e+00) (2, -4.28234577178955078125e-01) (0, 2.04122829437255859375e+00) (1, 1.22538030147552490234e+00) (2, -3.13596695661544799805e-01) (0, 2.51932549476623535156e+00) (1, -6.44184064865112304688e+00) (2, -1.88347607851028442383e-01) (0, 1.40237021446228027344e+00) (1, 5.32985508441925048828e-01) (2, -1.17988891899585723877e-01) (0, 1.89693903923034667969e+00) (1, 1.26232075691223144531e+00) (2, -3.91044765710830688477e-01) (0, 2.41801476478576660156e+00) (1, -7.00160837173461914062e+00) (2, 1.36282593011856079102e-01) (0, 2.70329403877258300781e+00) (1, -7.17692899703979492188e+00) (2, -1.22749753296375274658e-01) (0, 2.29462456703186035156e+00) (1, -6.10010004043579101562e+00) (2, -1.19140572845935821533e-01) (0, 1.20190703868865966797e+00) (1, -1.28926679491996765137e-01) (2, 2.59677171707153320312e-01) (0, 2.03665161132812500000e+00) (1, 1.12966072559356689453e+00) (2, -2.73043245077133178711e-01) (0, 2.48431754112243652344e+00) (1, -6.30069398880004882812e+00) (2, -1.64045497775077819824e-01) (0, 1.46162080764770507812e+00) (1, 2.98401474952697753906e-01) (2, -2.80498832464218139648e-01) (0, 2.36560320854187011719e+00) (1, -5.44280910491943359375e+00) (2, -1.92068874835968017578e-01) (0, 1.29086148738861083984e+00) (1, 3.43415766954421997070e-01) (2, 1.60450145602226257324e-01) (0, 5.12326955795288085938e+00) (1, 3.07632875442504882812e+00) (2, -6.02645444869995117188e+00) (0, 2.80684638023376464844e+00) (1, -7.29053115844726562500e+00) (2, -1.04598104953765869141e-01) (0, 2.80809617042541503906e+00) (1, -7.27791738510131835938e+00) (2, -1.72429591417312622070e-01) (0, 1.49920165538787841797e+00) (1, 1.52800619602203369141e+00) (2, -4.11849200725555419922e-01) (0, 2.62574410438537597656e+00) (1, -7.35977458953857421875e+00) (2, 5.45834526419639587402e-02) (0, 2.42594289779663085938e+00) (1, -6.21748542785644531250e+00) (2, -2.46895611286163330078e-01) (0, 1.47809624671936035156e+00) (1, 9.85450029373168945312e-01) (2, -3.81707876920700073242e-01) (0, 2.78642439842224121094e+00) (1, -7.23085784912109375000e+00) (2, -1.35573789477348327637e-01) (0, 1.85641503334045410156e+00) (1, 1.21000277996063232422e+00) (2, -3.42674523591995239258e-01) (0, 1.39892196655273437500e+00) (1, 5.40440201759338378906e-01) (2, -9.73687395453453063965e-02) (0, 1.96074640750885009766e+00) (1, 1.31026113033294677734e+00) (2, -3.64822357892990112305e-01) (0, 2.32788062095642089844e+00) (1, -6.11324691772460937500e+00) (2, -1.36146172881126403809e-01) (0, 2.37476825714111328125e+00) (1, -6.06942319869995117188e+00) (2, -2.51894772052764892578e-01) (0, 2.51385974884033203125e+00) (1, -7.40037059783935546875e+00) (2, 3.31055708229541778564e-02) (0, 2.02465391159057617188e+00) (1, 1.20545518398284912109e+00) (2, -3.92894953489303588867e-01) (0, 1.51836526393890380859e+00) (1, 1.34220755100250244141e+00) (2, -3.01970299333333969116e-02) (0, 1.96728324890136718750e+00) (1, 1.39335310459136962891e+00) (2, -6.90100312232971191406e-01) (3, -2.93032377958297729492e-02) (4, 1.26945069059729576111e-02) (5, 2.07773707807064056396e-02) (6, 7.75163844227790832520e-02) (7, 7.42239505052566528320e-02) (8, 6.37072697281837463379e-02) (9, 2.10452545434236526489e-02) (10, -4.51016128063201904297e-02) (11, -1.07871973887085914612e-02) (12, -7.67201185226440429688e-02) (13, -2.50234864652156829834e-02) (14, 9.80497598648071289062e-02) (15, 1.09308632090687751770e-03) (16, -4.34906221926212310791e-02) (17, 5.04813157021999359131e-02) (18, -3.06539447046816349030e-03) (19, -8.60882103443145751953e-02) (20, 5.32493088394403457642e-03) (21, 3.82992066442966461182e-02) (22, 6.48376122117042541504e-02) (23, 3.52439358830451965332e-02) (24, -6.48463219404220581055e-02) (25, -1.06591023504734039307e-01) (26, -4.62381280958652496338e-02) (27, 1.06789888814091682434e-02) (28, -7.28372037410736083984e-02) (29, 4.66020926833152770996e-02) (30, 1.73157881945371627808e-02) (31, 6.63760527968406677246e-02) (32, -1.06197610497474670410e-01) (33, 3.54026891291141510010e-02) (34, -7.95996263623237609863e-02) (35, 2.83725336194038391113e-02) (36, -4.70304228365421295166e-02) (37, -1.05311624705791473389e-01) (38, -1.03203039616346359253e-02) (39, -5.79623989760875701904e-02) (40, 2.78426129370927810669e-02) (41, 9.20888185501098632812e-02) (42, 4.54263649880886077881e-02) (43, 3.25255505740642547607e-02) (44, -1.23348832130432128906e-02) (45, 3.78515124320983886719e-02) (46, -3.45185324549674987793e-02) (47, 3.47174890339374542236e-02) (48, 5.42042497545480728149e-03) (49, 7.59945288300514221191e-02) (50, 6.59005641937255859375e-02) (51, -5.76053299009799957275e-02) (52, 8.89146793633699417114e-03) (53, 5.40653057396411895752e-02) (54, -1.17761343717575073242e-01) (55, 6.17421790957450866699e-02) (56, 7.27169960737228393555e-02) (57, -2.53994576632976531982e-02) (58, -4.68711517751216888428e-02) (59, -1.52692627906799316406e+00) (60, -7.90668576955795288086e-02) (61, -1.03509366512298583984e-01) (62, 7.71743655204772949219e-02) (63, -6.27465099096298217773e-02) (64, 6.13421723246574401855e-02) (65, -8.40180888772010803223e-02) (66, 1.03201664984226226807e-01) (67, -4.38705533742904663086e-02) (68, -9.43565443158149719238e-02) (69, -3.86564768850803375244e-02) (70, -1.33077455684542655945e-02) (71, 4.36592251062393188477e-02) (72, -5.26281334459781646729e-02) (73, -8.11662599444389343262e-02) (74, 2.52387262880802154541e-02) (75, 3.49175408482551574707e-02) (76, 6.95156976580619812012e-02) (77, -1.08132340013980865479e-01) (78, 1.56823080033063888550e-03) (79, -1.11005108919925987720e-04) (80, 8.61706286668777465820e-02) (81, -2.06941403448581695557e-02) (82, 4.75971028208732604980e-02) (83, 5.65491151064634323120e-03) (84, -6.92253857851028442383e-02) (85, 5.43585643172264099121e-02) (86, -9.70317982137203216553e-03) (87, -1.04422934353351593018e-01) (88, -6.28348231315612792969e-01) (89, 4.50072959065437316895e-02) (90, -6.78694695234298706055e-02) (91, -4.36237640678882598877e-02) (92, 8.05283784866333007812e-02) (93, -8.14363956451416015625e-02) (94, -3.05198342539370059967e-03) (95, 5.73482438921928405762e-02) (96, -7.03162997961044311523e-02) (97, -4.39286790788173675537e-02) (98, -9.53402817249298095703e-02) (99, -2.08363980054855346680e-02) (100, 4.64764945209026336670e-02) (101, 2.33486220240592956543e-02) (102, -4.88706193864345550537e-02) (103, -8.07109847664833068848e-02) (104, 2.36505828797817230225e-02) (105, 6.10025897622108459473e-02) (106, -1.87621027231216430664e-01) (107, 3.94210703670978546143e-02) (108, 5.77717497944831848145e-02) (109, -4.47631850838661193848e-02) (110, -2.91243959218263626099e-02) (111, 6.74799680709838867188e-02) (112, 3.43337580561637878418e-02) (113, -1.08234614133834838867e-01) (114, -3.93562912940979003906e-02) (115, 8.27164426445960998535e-02) (116, 5.81414401531219482422e-02) (117, 9.43836718797683715820e-02) (118, -8.39985311031341552734e-02) (119, -8.40949565172195434570e-02) (120, 3.39939221739768981934e-02) (121, -5.14898747205734252930e-02) (122, -5.81617504358291625977e-02) (123, -2.82018003053963184357e-03) (124, -2.87419613450765609741e-02) (125, 4.16318438947200775146e-02) (126, -2.79653202742338180542e-02) (127, -2.18887142837047576904e-02) (128, -1.03177368640899658203e-01) (129, -1.03278039023280143738e-02) (130, 6.27090409398078918457e-02) (131, -1.00050061941146850586e-01) (132, -1.10291719436645507812e-01) (133, -8.34357589483261108398e-02) (134, -4.89249080419540405273e-02) (135, 8.63835588097572326660e-02) (136, -9.97269228100776672363e-02) (137, 9.72703248262405395508e-02) (138, 3.32723073661327362061e-02) (139, -1.26773685216903686523e-01) (140, -6.68271705508232116699e-02) (141, -8.95980075001716613770e-02) (142, 5.61669766902923583984e-02) (143, 6.25069513916969299316e-02) (144, -4.60544750094413757324e-02) (145, -3.65459397435188293457e-02) (146, 9.28244292736053466797e-02) (147, -8.47321674227714538574e-02) (148, -6.23723156750202178955e-02) (149, 9.37884300947189331055e-02) (150, -4.79586236178874969482e-02) (151, 5.29933944344520568848e-02) (152, -5.32727576792240142822e-02) (153, -1.82873208541423082352e-03) (154, -4.60741855204105377197e-03) (155, -2.33731721527874469757e-03) (156, 1.27088883891701698303e-03) (157, 8.48856493830680847168e-02) (158, -1.25153779983520507812e-01) (159, 3.51134575903415679932e-02) (160, -2.09984593093395233154e-02) (161, -1.00454285740852355957e-01) (162, 2.20872368663549423218e-02) (163, -3.65782454609870910645e-02) (164, -5.62749058008193969727e-02) (165, 6.50384277105331420898e-02) (166, -2.25893240422010421753e-02) (167, -3.18837203085422515869e-02) (168, 4.43332493305206298828e-02) (169, -5.58642670512199401855e-02) (170, -3.02226580679416656494e-02) (171, 6.83926045894622802734e-02) (172, -3.48571427166461944580e-02) (173, -5.58511689305305480957e-02) (174, 6.91537857055664062500e-02) (175, -5.27966395020484924316e-03) (176, -1.83664597570896148682e-02) (177, 4.61276806890964508057e-02) (178, 5.40699288249015808105e-02) (179, 4.87899035215377807617e-02) (180, 4.49416898190975189209e-02) (181, -6.94207996129989624023e-02) (182, 2.17041615396738052368e-02) (183, -9.91771593689918518066e-02) (184, 5.38478903472423553467e-02) (185, -1.11378706991672515869e-01) (186, 8.23374744504690170288e-03) (187, -6.48372620344161987305e-02) (188, 6.01410642266273498535e-02) (189, 7.81119167804718017578e-02) (190, -9.31110680103302001953e-02) (191, -7.25348889827728271484e-02) (192, 6.05485886335372924805e-02) (193, 3.30358333885669708252e-02) (194, 3.24216671288013458252e-02) (195, -8.68891179561614990234e-02) (196, 2.34646648168563842773e-02) (197, -9.08306762576103210449e-02) (198, 1.29696540534496307373e-03) (199, -3.75688448548316955566e-02) (200, -3.13692241907119750977e-02) (201, 4.09899950027465820312e-02) (202, -2.67126038670539855957e-02) (203, 2.14502178132534027100e-02) (204, -1.22057698667049407959e-01) (205, -7.33771696686744689941e-02) (206, -4.13814224302768707275e-02) (207, 9.93779394775629043579e-03) (208, -9.14980694651603698730e-02) (209, -4.36682701110839843750e-02) (210, -5.22648468613624572754e-02) (211, 4.68012988567352294922e-02) (212, -6.43952516838908195496e-03) (213, 7.17302635312080383301e-02) (214, 7.65192508697509765625e-02) (215, -4.77616563439369201660e-02) (216, -1.00469164550304412842e-01) (217, -3.03779039531946182251e-02) (218, -9.13808867335319519043e-03) (219, 8.84541720151901245117e-02) (220, -6.26109093427658081055e-02) (221, 2.09439452737569808960e-02) (222, -5.38982525467872619629e-02) (223, -1.19978576898574829102e-01) (224, -1.46024869754910469055e-02) (225, 8.89919549226760864258e-02) (226, -7.86774232983589172363e-02) (227, -9.31101664900779724121e-02) (228, -1.73591703176498413086e-01) (229, -2.18008505180478096008e-03) (230, 2.17042285948991775513e-02) (231, -2.22711302340030670166e-02) (232, -6.12659230828285217285e-02) (233, 6.78960606455802917480e-02) (234, -6.54164627194404602051e-02) (235, -3.62929888069629669189e-02) (236, -8.58408361673355102539e-02) (237, 2.46302150189876556396e-02) (238, 7.49075561761856079102e-02) (239, -8.71567726135253906250e-02) (240, -6.47576272487640380859e-01) (241, -6.72635212540626525879e-02) (242, -8.47541242837905883789e-02) (243, -2.32742670923471450806e-02) (244, -8.18371400237083435059e-02) (245, 9.36605706810951232910e-02) (246, 4.77962149307131767273e-03) (247, -8.94642621278762817383e-02) (248, -2.96717770397663116455e-02) (249, -4.33670654892921447754e-02) (250, -9.20677036046981811523e-02) (251, 1.78355965763330459595e-02) (252, 8.75297933816909790039e-02) (253, -4.54530194401741027832e-02) (254, 3.61423604190349578857e-02) (255, -5.14906086027622222900e-02) (256, -5.26556000113487243652e-02) (257, 7.25819692015647888184e-02) (258, -2.94388141483068466187e-02) (259, -3.90308275818824768066e-02) (260, -1.28295747563242912292e-02) (261, 5.02182841300964355469e-02) (262, 2.39804610610008239746e-02) (263, 4.94917705655097961426e-02) (264, 5.84983304142951965332e-02) (265, 7.96201005578041076660e-02) (266, -1.04532144963741302490e-01) (267, 8.41400176286697387695e-02) (268, 5.67710027098655700684e-03) (269, 8.40365961194038391113e-02) (270, -8.56243446469306945801e-02) (271, -3.66505198180675506592e-02) (272, -9.39792394638061523438e-02) (273, -5.56565299630165100098e-02) (274, 4.40232492983341217041e-02) (275, -5.44563382863998413086e-02) (276, -6.18254803121089935303e-02) (277, -8.43019969761371612549e-03) (278, -5.66194131970405578613e-02) (279, 1.78435798734426498413e-02) (280, 6.29134029150009155273e-02) (281, -2.22749374806880950928e-02) (282, -5.21461553871631622314e-02) (283, 5.46513386070728302002e-02) (284, 2.18383446335792541504e-02) (285, -7.35034644603729248047e-02) (286, -7.30935215950012207031e-01) (287, 5.15584573149681091309e-02) (288, -1.18888050317764282227e-01) (289, 2.95662432909011840820e-02) (290, -7.68542140722274780273e-02) (291, -1.71675328165292739868e-02) (292, 1.77000779658555984497e-02) (293, 6.29168823361396789551e-02) (294, -4.90479618310928344727e-02) (295, -2.30464488267898559570e-02) (296, 7.37013369798660278320e-02) (297, -4.57623228430747985840e-02) (298, -4.92498874664306640625e-02) (299, -4.28294055163860321045e-02) (300, -3.63636761903762817383e-02) (301, -1.98509451001882553101e-02) (302, 6.63976445794105529785e-02) (303, 5.38326101377606391907e-03) (3, -1.79993712902069091797e+00) (4, -1.79167306423187255859e+00) (5, -1.79450571537017822266e+00) (6, -9.74040627479553222656e-01) (7, -1.88989198207855224609e+00) (8, -8.17418217658996582031e-01) (9, -5.13459086418151855469e-01) (10, -2.07128930091857910156e+00) (11, -1.84705555438995361328e+00) (12, -1.74858653545379638672e+00) (13, -1.86869013309478759766e+00) (14, -1.91377735137939453125e+00) (15, -1.73066687583923339844e+00) (16, -1.73011922836303710938e+00) (17, -2.95798492431640625000e+00) (18, -1.90715789794921875000e+00) (19, -1.78561413288116455078e+00) (20, -1.66624689102172851562e+00) (21, -1.80794191360473632812e+00) (22, -1.69944643974304199219e+00) (23, -1.71259868144989013672e+00) (24, -1.75481832027435302734e+00) (25, -1.78351902961730957031e+00) (26, -1.93386292457580566406e+00) (27, -1.88419711589813232422e+00) (28, -1.91662383079528808594e+00) (29, -1.84147465229034423828e+00) (30, -1.61747980117797851562e+00) (31, -1.82120299339294433594e+00) (32, -1.64349985122680664062e+00) (33, -1.44228029251098632812e+00) (34, -1.88935434818267822266e+00) (35, -1.13519442081451416016e+00) (36, -1.57555818557739257812e+00) (37, -1.67653656005859375000e+00) (38, -2.92444777488708496094e+00) (39, -1.76275706291198730469e+00) (40, -1.78641462326049804688e+00) (41, -5.14358520507812500000e-01) (42, -1.32365274429321289062e+00) (43, -1.79370939731597900391e+00) (44, -9.97198700904846191406e-01) (45, -5.53094029426574707031e-01) (46, -1.28961443901062011719e+00) (47, -1.59393215179443359375e+00) (48, -7.03847110271453857422e-01) (49, -1.94566142559051513672e+00) (50, -1.86238276958465576172e+00) (51, -1.79153072834014892578e+00) (52, -2.82921147346496582031e+00) (53, -1.30524754524230957031e+00) (54, -1.75344896316528320312e+00) (55, -5.28943896293640136719e-01) (56, -1.82905864715576171875e+00) (57, -6.23787760734558105469e-01) (58, -2.82772874832153320312e+00) (59, -1.16564453125000000000e+03) (60, -1.82504868507385253906e+00) (61, -1.99964451789855957031e+00) (62, -5.86359202861785888672e-01) (63, -1.75974357128143310547e+00) (64, -3.45805025100708007812e+00) (65, -1.04035103321075439453e+00) (66, -1.80170691013336181641e+00) (67, -1.85949563980102539062e+00) (68, -4.45055770874023437500e+00) (69, -1.63582599163055419922e+00) (70, -1.39507353305816650391e+00) (71, -1.60377621650695800781e+00) (72, -1.93222475051879882812e+00) (73, -1.93124055862426757812e+00) (74, -5.91543793678283691406e-01) (75, -1.84246242046356201172e+00) (76, -1.69990336894989013672e+00) (77, -1.42539763450622558594e+00) (78, -1.90972459316253662109e+00) (79, -1.81073868274688720703e+00) (80, -1.90614855289459228516e+00) (81, -5.32254338264465332031e-01) (82, -1.84280407428741455078e+00) (83, -2.79409766197204589844e+00) (84, -1.65367436408996582031e+00) (85, -7.34598577022552490234e-01) (86, -9.95245635509490966797e-01) (87, -1.57828640937805175781e+00) (88, -1.45076599121093750000e+03) (89, -1.38546752929687500000e+00) (90, -1.83756530284881591797e+00) (91, -1.90896594524383544922e+00) (92, -3.39956378936767578125e+00) (93, -1.20394051074981689453e+00) (94, -1.91958951950073242188e+00) (95, -5.56059360504150390625e-01) (96, -1.86381864547729492188e+00) (97, -1.10059678554534912109e+00) (98, -1.76531124114990234375e+00) (99, -1.89525115489959716797e+00) (100, -1.81083607673645019531e+00) (101, -1.90414154529571533203e+00) (102, -1.78215157985687255859e+00) (103, -1.80207240581512451172e+00) (104, -2.45234346389770507812e+00) (105, -1.43772101402282714844e+00) (106, -7.07767486572265625000e-01) (107, -1.75349593162536621094e+00) (108, -1.66901326179504394531e+00) (109, -7.34753310680389404297e-01) (110, -1.80178856849670410156e+00) (111, -5.73636710643768310547e-01) (112, -1.76539444923400878906e+00) (113, -1.71662664413452148438e+00) (114, -1.66275691986083984375e+00) (115, -1.89344012737274169922e+00) (116, -1.61864805221557617188e+00) (117, -1.22763872146606445312e+01) (118, -6.16897881031036376953e-01) (119, -1.89091777801513671875e+00) (120, -1.91603982448577880859e+00) (121, -1.01669275760650634766e+00) (122, -2.01918196678161621094e+00) (123, -2.38624668121337890625e+00) (124, -5.35959243774414062500e-01) (125, -1.63537025451660156250e+00) (126, -7.16157793998718261719e-01) (127, -1.56086635589599609375e+00) (128, -1.62181222438812255859e+00) (129, -7.39433228969573974609e-01) (130, -1.71566462516784667969e+00) (131, -1.87176358699798583984e+00) (132, -1.64712548255920410156e+00) (133, -2.81085157394409179688e+00) (134, -6.57860934734344482422e-01) (135, -1.86492228507995605469e+00) (136, -1.44568049907684326172e+00) (137, -5.75200796127319335938e-01) (138, -1.64142346382141113281e+00) (139, -1.69106912612915039062e+00) (140, -1.81174015998840332031e+00) (141, -2.95184588432312011719e+00) (142, -2.86239027976989746094e+00) (143, -3.46037197113037109375e+00) (144, -1.88912677764892578125e+00) (145, -1.74088156223297119141e+00) (146, -4.62887644767761230469e-01) (147, -2.82050180435180664062e+00) (148, -1.79207968711853027344e+00) (149, -1.75267946720123291016e+00) (150, -1.11641097068786621094e+00) (151, -2.79323387145996093750e+00) (152, -1.81696987152099609375e+00) (153, -1.98317253589630126953e+00) (154, -4.75167691707611083984e-01) (155, -2.97701168060302734375e+00) (156, -1.91735827922821044922e+00) (157, -1.00239631652832031250e+02) (158, -1.73089933395385742188e+00) (159, -1.77912509441375732422e+00) (160, -1.01679587364196777344e+00) (161, -1.88867771625518798828e+00) (162, -1.72376179695129394531e+00) (163, -4.35016965866088867188e+00) (164, -1.88245272636413574219e+00) (165, -1.91287267208099365234e+00) (166, -1.82957375049591064453e+00) (167, -1.86903667449951171875e+00) (168, -7.20486104488372802734e-01) (169, -1.74455749988555908203e+00) (170, -1.80548799037933349609e+00) (171, -2.94790291786193847656e+00) (172, -1.44887042045593261719e+00) (173, -1.86116266250610351562e+00) (174, -8.23617279529571533203e-01) (175, -1.65984573364257812500e+02) (176, -1.67407822608947753906e+00) (177, -1.36162018775939941406e+00) (178, -4.35434961318969726562e+00) (179, -6.12140238285064697266e-01) (180, -1.85536026954650878906e+00) (181, -1.85241353511810302734e+00) (182, -1.93791496753692626953e+00) (183, -7.99521625041961669922e-01) (184, -1.94322800636291503906e+00) (185, -1.57743859291076660156e+00) (186, -2.06010031700134277344e+00) (187, -1.68621110916137695312e+00) (188, -1.70927500724792480469e+00) (189, -5.91978430747985839844e-01) (190, -4.60556745529174804688e-01) (191, -1.57076978683471679688e+00) (192, -1.81549561023712158203e+00) (193, -2.98578834533691406250e+00) (194, -1.91114270687103271484e+00) (195, -1.75863838195800781250e+00) (196, -1.89086329936981201172e+00) (197, -1.30735969543457031250e+00) (198, -1.71734893321990966797e+00) (199, -1.30678391456604003906e+00) (200, -1.79684376716613769531e+00) (201, -1.58572065830230712891e+00) (202, -1.77173936367034912109e+00) (203, -1.59842205047607421875e+00) (204, -1.87995636463165283203e+00) (205, -1.65052485466003417969e+00) (206, -1.73534846305847167969e+00) (207, -1.22814142704010009766e+00) (208, -1.93873715400695800781e+00) (209, -7.41719305515289306641e-01) (210, -1.28139305114746093750e+00) (211, -2.53388214111328125000e+00) (212, -1.78361380100250244141e+00) (213, -1.76013827323913574219e+00) (214, -1.84285557270050048828e+00) (215, -9.92679715156555175781e-01) (216, -1.78295886516571044922e+00) (217, -1.57905793190002441406e+00) (218, -1.55870461463928222656e+00) (219, -1.93845522403717041016e+00) (220, -1.93752849102020263672e+00) (221, -1.75422549247741699219e+00) (222, -1.75544607639312744141e+00) (223, -1.93670678138732910156e+00) (224, -1.36876881122589111328e+00) (225, -1.92727887630462646484e+00) (226, -1.84056675434112548828e+00) (227, -1.87312054634094238281e+00) (228, -1.42867843627929687500e+02) (229, -1.77699089050292968750e+00) (230, -6.82819485664367675781e-01) (231, -1.83397436141967773438e+00) (232, -1.59960412979125976562e+00) (233, -1.75443947315216064453e+00) (234, -1.87892138957977294922e+00) (235, -1.91711473464965820312e+00) (236, -1.85202503204345703125e+00) (237, -5.63073575496673583984e-01) (238, -1.76657259464263916016e+00) (239, -1.66309976577758789062e+00) (240, -1.95158696174621582031e+00) (241, -1.00157189369201660156e+00) (242, -1.76326918601989746094e+00) (243, -3.46972703933715820312e+00) (244, -1.24419510364532470703e+00) (245, -1.86483299732208251953e+00) (246, -2.89747786521911621094e+00) (247, -1.85965490341186523438e+00) (248, -2.99407196044921875000e+00) (249, -1.87536919116973876953e+00) (250, -1.84815120697021484375e+00) (251, -1.70196485519409179688e+00) (252, -1.88914179801940917969e+00) (253, -1.86230552196502685547e+00) (254, -1.31366646289825439453e+00) (255, -1.69255304336547851562e+00) (256, -5.58922350406646728516e-01) (257, -7.59720325469970703125e-01) (258, -2.49152040481567382812e+00) (259, -1.88740456104278564453e+00) (260, -1.92535257339477539062e+00) (261, -4.77234697341918945312e+00) (262, -1.94112515449523925781e+00) (263, -3.40521383285522460938e+00) (264, -1.80774295330047607422e+00) (265, -1.13332629203796386719e+00) (266, -1.86183321475982666016e+00) (267, -6.28267109394073486328e-01) (268, -1.83973658084869384766e+00) (269, -1.77312088012695312500e+00) (270, -1.75096679687500000000e+02) (271, -1.70430111885070800781e+00) (272, -4.03054904937744140625e+00) (273, -1.84977447986602783203e+00) (274, -1.56208562850952148438e+00) (275, -1.10363018512725830078e+00) (276, -1.77415478229522705078e+00) (277, -2.94096207618713378906e+00) (278, -1.60831928253173828125e+00) (279, -1.27975463867187500000e+00) (280, -1.06777477264404296875e+00) (281, -1.90185272693634033203e+00) (282, -1.52140259742736816406e+00) (283, -1.01175773143768310547e+00) (284, -9.94621932506561279297e-01) (285, -1.81218206882476806641e+00) (286, -1.05605651855468750000e+02) (287, -1.70880699157714843750e+00) (288, -1.91093325614929199219e+00) (289, -3.44238328933715820312e+00) (290, -2.94668054580688476562e+00) (291, -1.45437586307525634766e+00) (292, -1.29736459255218505859e+00) (293, -1.69653558731079101562e+00) (294, -1.76498448848724365234e+00) (295, -7.98168540000915527344e-01) (296, -1.89935815334320068359e+00) (297, -1.29001903533935546875e+00) (298, -1.42158591747283935547e+00) (299, -2.86598658561706542969e+00) (300, -1.80336165428161621094e+00) (301, -1.80297577381134033203e+00) (302, -1.74886035919189453125e+00) (303, -5.55672228336334228516e-01) (3, -1.90279161930084228516e+00) (4, -1.79408609867095947266e+00) (5, -1.82753980159759521484e+00) (6, -3.64306032657623291016e-01) (7, -1.77850449085235595703e+00) (8, -1.77877247333526611328e-01) (9, -4.43734973669052124023e-01) (10, -1.25092196464538574219e+00) (11, -1.84348022937774658203e+00) (12, -1.76093876361846923828e+00) (13, -1.26408827304840087891e+00) (14, -1.92757225036621093750e+00) (15, -1.05331349372863769531e+00) (16, -1.16281914710998535156e+00) (17, -2.94426107406616210938e+00) (18, -1.83458566665649414062e+00) (19, -1.80001437664031982422e+00) (20, -1.05079293251037597656e+00) (21, -1.82923126220703125000e+00) (22, -1.15942525863647460938e+00) (23, -1.06778943538665771484e+00) (24, -1.85292375087738037109e+00) (25, -1.90886211395263671875e+00) (26, -1.80645751953125000000e+00) (27, -1.88316452503204345703e+00) (28, -1.87453460693359375000e+00) (29, -1.85430109500885009766e+00) (30, -9.47368681430816650391e-01) (31, -1.92755150794982910156e+00) (32, -1.05654919147491455078e+00) (33, -6.17790400981903076172e-01) (34, -1.89855730533599853516e+00) (35, -3.46041709184646606445e-01) (36, -9.75858747959136962891e-01) (37, -1.07833778858184814453e+00) (38, -1.44672739505767822266e+00) (39, -1.91619133949279785156e+00) (40, -1.90194797515869140625e+00) (41, -5.69609642028808593750e-01) (42, -5.22875726222991943359e-01) (43, -1.92159497737884521484e+00) (44, -2.83042371273040771484e-01) (45, -5.16747534275054931641e-01) (46, -5.35526871681213378906e-01) (47, -1.06536996364593505859e+00) (48, -7.03175067901611328125e-02) (49, -6.56404852867126464844e-01) (50, -1.93168556690216064453e+00) (51, -1.90947186946868896484e+00) (52, -2.81194353103637695312e+00) (53, -6.42759382724761962891e-01) (54, -1.02658057212829589844e+00) (55, -6.09781503677368164062e-01) (56, -1.88001561164855957031e+00) (57, -5.52979171276092529297e-01) (58, -1.54225575923919677734e+00) (59, -1.16565344238281250000e+03) (60, -1.76706647872924804688e+00) (61, -1.21759653091430664062e+00) (62, -5.01581907272338867188e-01) (63, -6.47594213485717773438e-01) (64, -3.42770385742187500000e+00) (65, -1.76668539643287658691e-01) (66, -5.70697963237762451172e-01) (67, -1.82579684257507324219e+00) (68, -4.56024360656738281250e+00) (69, -1.06454634666442871094e+00) (70, -5.28987050056457519531e-01) (71, -1.04553031921386718750e+00) (72, -1.81252837181091308594e+00) (73, -1.21274590492248535156e+00) (74, -5.44648289680480957031e-01) (75, -1.76150357723236083984e+00) (76, -9.36807334423065185547e-01) (77, -6.26696288585662841797e-01) (78, -1.88366878032684326172e+00) (79, -5.43216228485107421875e-01) (80, -1.85471093654632568359e+00) (81, -5.75501620769500732422e-01) (82, -1.74392211437225341797e+00) (83, -2.92539238929748535156e+00) (84, -1.03907072544097900391e+00) (85, -9.59869250655174255371e-02) (86, -2.57039666175842285156e-01) (87, -1.01463985443115234375e+00) (88, -1.45076599121093750000e+03) (89, -4.89308387041091918945e-01) (90, -6.15552067756652832031e-01) (91, -1.93789017200469970703e+00) (92, -1.29807639122009277344e+00) (93, -1.34784317016601562500e+00) (94, -1.88706374168395996094e+00) (95, -6.23690843582153320312e-01) (96, -6.81441903114318847656e-01) (97, -4.09226745367050170898e-01) (98, -1.79924392700195312500e+00) (99, -1.87325894832611083984e+00) (100, -1.94085764884948730469e+00) (101, -1.85780918598175048828e+00) (102, -1.78537857532501220703e+00) (103, -1.81239783763885498047e+00) (104, -1.89216649532318115234e+00) (105, -6.08231484889984130859e-01) (106, -6.37134194374084472656e-01) (107, -1.02653956413269042969e+00) (108, -1.02899944782257080078e+00) (109, -5.46047016978263854980e-02) (110, -1.84147453308105468750e+00) (111, -4.65659439563751220703e-01) (112, -1.91195249557495117188e+00) (113, -1.07396578788757324219e+00) (114, -1.10260033607482910156e+00) (115, -1.80885946750640869141e+00) (116, -1.13370203971862792969e+00) (117, -1.23118276596069335938e+01) (118, -5.52135467529296875000e-01) (119, -1.87634301185607910156e+00) (120, -1.84341752529144287109e+00) (121, -1.94796502590179443359e-01) (122, -1.24546968936920166016e+00) (123, -9.60898041725158691406e-01) (124, -4.43794727325439453125e-01) (125, -1.02086186408996582031e+00) (126, -2.25684270262718200684e-01) (127, -1.15354990959167480469e+00) (128, -5.59353411197662353516e-01) (129, -8.35401639342308044434e-02) (130, -1.08635616302490234375e+00) (131, -1.88857829570770263672e+00) (132, -1.15343832969665527344e+00) (133, -2.96823501586914062500e+00) (134, -4.85009312629699707031e-01) (135, -1.76877045631408691406e+00) (136, -5.71292459964752197266e-01) (137, -5.31707286834716796875e-01) (138, -1.01831579208374023438e+00) (139, -1.17396116256713867188e+00) (140, -1.87155747413635253906e+00) (141, -1.59121274948120117188e+00) (142, -1.44629228115081787109e+00) (143, -3.46674776077270507812e+00) (144, -1.82997393608093261719e+00) (145, -1.91337001323699951172e+00) (146, -5.84673404693603515625e-01) (147, -1.49458956718444824219e+00) (148, -1.80000877380371093750e+00) (149, -1.80971205234527587891e+00) (150, -3.55386793613433837891e-01) (151, -2.92854070663452148438e+00) (152, -1.83792638778686523438e+00) (153, -1.23422467708587646484e+00) (154, -6.35820925235748291016e-01) (155, -1.54051649570465087891e+00) (156, -1.93832290172576904297e+00) (157, -1.00293281555175781250e+02) (158, -1.05236601829528808594e+00) (159, -1.88688266277313232422e+00) (160, -2.11544066667556762695e-01) (161, -1.94776594638824462891e+00) (162, -1.06486892700195312500e+00) (163, -1.53266441822052001953e+00) (164, -1.89892435073852539062e+00) (165, -1.86458456516265869141e+00) (166, -1.79457747936248779297e+00) (167, -1.79922318458557128906e+00) (168, -4.52455505728721618652e-02) (169, -1.86991846561431884766e+00) (170, -1.79284060001373291016e+00) (171, -2.12785005569458007812e+00) (172, -5.86171329021453857422e-01) (173, -1.79769539833068847656e+00) (174, -7.98029363155364990234e-01) (175, -1.65850830078125000000e+02) (176, -9.99620676040649414062e-01) (177, -6.69723689556121826172e-01) (178, -2.06043863296508789062e+00) (179, -5.29090344905853271484e-01) (180, -1.80859923362731933594e+00) (181, -1.78282248973846435547e+00) (182, -1.79017174243927001953e+00) (183, -2.00094163417816162109e-01) (184, -1.91277766227722167969e+00) (185, -1.00688886642456054688e+00) (186, -1.17501735687255859375e+00) (187, -1.09326052665710449219e+00) (188, -9.92364525794982910156e-01) (189, -5.99888205528259277344e-01) (190, -5.58820068836212158203e-01) (191, -1.03444123268127441406e+00) (192, -1.88249361515045166016e+00) (193, -1.44335412979125976562e+00) (194, -1.81943476200103759766e+00) (195, -1.84210801124572753906e+00) (196, -6.14720165729522705078e-01) (197, -5.94835340976715087891e-01) (198, -5.83657920360565185547e-01) (199, -6.03738725185394287109e-01) (200, -1.79550051689147949219e+00) (201, -9.90383386611938476562e-01) (202, -1.82255065441131591797e+00) (203, -1.13901782035827636719e+00) (204, -1.81749784946441650391e+00) (205, -1.09228277206420898438e+00) (206, -1.14219546318054199219e+00) (207, -1.27470409870147705078e+00) (208, -1.86016631126403808594e+00) (209, -5.41899129748344421387e-02) (210, -6.56803309917449951172e-01) (211, -2.02506685256958007812e+00) (212, -1.80995261669158935547e+00) (213, -1.77590823173522949219e+00) (214, -1.89171874523162841797e+00) (215, -2.00484246015548706055e-01) (216, -1.81164824962615966797e+00) (217, -9.47419941425323486328e-01) (218, -1.16164278984069824219e+00) (219, -1.83371269702911376953e+00) (220, -1.89727962017059326172e+00) (221, -1.83890056610107421875e+00) (222, -1.89784038066864013672e+00) (223, -1.17536723613739013672e+00) (224, -1.27628815174102783203e+00) (225, -1.77796494960784912109e+00) (226, -5.00094115734100341797e-01) (227, -1.75519609451293945312e+00) (228, -5.94583702087402343750e+01) (229, -1.90086555480957031250e+00) (230, -6.47669792175292968750e-01) (231, -1.75661301612854003906e+00) (232, -1.14102268218994140625e+00) (233, -1.77010095119476318359e+00) (234, -1.92562091350555419922e+00) (235, -1.77953982353210449219e+00) (236, -1.89290928840637207031e+00) (237, -6.00085437297821044922e-01) (238, -1.87556040287017822266e+00) (239, -1.05113887786865234375e+00) (240, -1.29644012451171875000e+00) (241, -2.88269996643066406250e-01) (242, -1.80025076866149902344e+00) (243, -1.22954273223876953125e+00) (244, -1.33246552944183349609e+00) (245, -1.75067770481109619141e+00) (246, -2.06455826759338378906e+00) (247, -1.77661442756652832031e+00) (248, -1.46647953987121582031e+00) (249, -1.81694138050079345703e+00) (250, -1.86036825180053710938e+00) (251, -1.11591935157775878906e+00) (252, -1.91538953781127929688e+00) (253, -1.81691682338714599609e+00) (254, -5.52032530307769775391e-01) (255, -1.04285478591918945312e+00) (256, -5.64219832420349121094e-01) (257, -1.10665783286094665527e-01) (258, -1.92392432689666748047e+00) (259, -1.81668412685394287109e+00) (260, -1.78363227844238281250e+00) (261, -4.75303983688354492188e+00) (262, -1.20495486259460449219e+00) (263, -1.18891215324401855469e+00) (264, -1.80409681797027587891e+00) (265, -2.46123999357223510742e-01) (266, -1.11933290958404541016e+00) (267, -4.65514183044433593750e-01) (268, -1.77536618709564208984e+00) (269, -1.92769694328308105469e+00) (270, -1.75096237182617187500e+02) (271, -9.89393591880798339844e-01) (272, -4.05762529373168945312e+00) (273, -1.88630735874176025391e+00) (274, -1.00646710395812988281e+00) (275, -2.30874940752983093262e-01) (276, -1.89653241634368896484e+00) (277, -2.92398309707641601562e+00) (278, -1.05716085433959960938e+00) (279, -6.51715815067291259766e-01) (280, -2.04266145825386047363e-01) (281, -1.74637639522552490234e+00) (282, -1.09543848037719726562e+00) (283, -1.76780223846435546875e-01) (284, -4.10946428775787353516e-01) (285, -5.43169915676116943359e-01) (286, -1.05490264892578125000e+02) (287, -1.12977445125579833984e+00) (288, -1.23893690109252929688e+00) (289, -1.34336853027343750000e+00) (290, -1.51511406898498535156e+00) (291, -6.40644967555999755859e-01) (292, -1.17850708961486816406e+00) (293, -1.09870076179504394531e+00) (294, -1.92252004146575927734e+00) (295, -1.01396441459655761719e-01) (296, -1.78360593318939208984e+00) (297, -5.05043447017669677734e-01) (298, -5.50499379634857177734e-01) (299, -1.52058577537536621094e+00) (300, -1.76106166839599609375e+00) (301, -1.91726219654083251953e+00) (302, -1.83730959892272949219e+00) (303, -7.49558210372924804688e-02) (3, -3.90052720904350280762e-02) (4, -9.62519645690917968750e-02) (5, -1.13057672977447509766e-01) (6, 3.81931988522410392761e-03) (7, -5.82353249192237854004e-02) (8, -7.13928951881825923920e-04) (9, 1.55451856553554534912e-02) (10, -4.25662659108638763428e-02) (11, -5.82852074876427650452e-03) (12, 6.29050880670547485352e-02) (13, -5.74549585580825805664e-02) (14, -8.82160067558288574219e-02) (15, 6.61290064454078674316e-02) (16, 6.87136277556419372559e-02) (17, -4.35995236039161682129e-02) (18, -1.07682555913925170898e-01) (19, 5.47771379351615905762e-02) (20, 8.49825814366340637207e-02) (21, -7.67002105712890625000e-02) (22, 9.92366224527359008789e-02) (23, -7.94062241911888122559e-02) (24, -5.87675236165523529053e-02) (25, -1.18705220520496368408e-02) (26, 3.36182489991188049316e-02) (27, -9.26025509834289550781e-02) (28, -9.22777652740478515625e-02) (29, -4.36846092343330383301e-02) (30, -7.23277404904365539551e-02) (31, -5.95809482038021087646e-02) (32, 1.02252319455146789551e-01) (33, 2.87795416079461574554e-03) (34, 2.66386996954679489136e-02) (35, -1.11874923110008239746e-01) (36, 1.37639166787266731262e-02) (37, -3.10165202245116233826e-03) (38, 8.12781602144241333008e-03) (39, -9.93489623069763183594e-02) (40, -9.12532806396484375000e-02) (41, -8.99813789874315261841e-03) (42, 5.92715442180633544922e-02) (43, -1.04649573564529418945e-01) (44, 2.73575801402330398560e-02) (45, 5.52095398306846618652e-02) (46, 8.01907926797866821289e-02) (47, 1.85432005673646926880e-02) (48, -1.01526230573654174805e-01) (49, 5.97424879670143127441e-02) (50, -4.29896153509616851807e-02) (51, 6.75305724143981933594e-02) (52, -4.93663176894187927246e-02) (53, -2.29076370596885681152e-02) (54, 1.17586076259613037109e-01) (55, -2.53506693989038467407e-02) (56, 5.01101762056350708008e-02) (57, 2.97703482210636138916e-02) (58, 5.73535561561584472656e-02) (59, -7.20080971717834472656e-01) (60, -8.59827101230621337891e-02) (61, 6.68217614293098449707e-02) (62, -5.29150962829589843750e-02) (63, -1.01743936538696289062e-01) (64, -9.32694524526596069336e-02) (65, -9.80405062437057495117e-02) (66, -8.77901613712310791016e-02) (67, 1.27163361757993698120e-02) (68, 1.77566390484571456909e-02) (69, 4.02496084570884704590e-02) (70, 7.45482742786407470703e-02) (71, 6.10952265560626983643e-02) (72, -7.87371546030044555664e-02) (73, 2.27932613343000411987e-02) (74, 4.27838340401649475098e-02) (75, -1.20460331439971923828e-01) (76, 8.84187594056129455566e-03) (77, 4.69559133052825927734e-02) (78, -1.74634288996458053589e-02) (79, -9.74615290760993957520e-03) (80, -5.89747098274528980255e-04) (81, 6.38386607170104980469e-02) (82, -1.06124812737107276917e-02) (83, 7.58914873003959655762e-02) (84, -3.06667443364858627319e-02) (85, -1.35007621720433235168e-02) (86, -6.34053647518157958984e-02) (87, -4.99954819679260253906e-02) (88, -9.59574803709983825684e-02) (89, 1.13331995904445648193e-01) (90, -9.18120741844177246094e-02) (91, -1.55735807493329048157e-02) (92, 2.21757870167493820190e-02) (93, -1.34296165779232978821e-02) (94, 9.29367914795875549316e-03) (95, 5.99544793367385864258e-02) (96, 1.67931336909532546997e-02) (97, 8.65508392453193664551e-02) (98, 6.02202198933809995651e-04) (99, -7.01389163732528686523e-02) (100, -2.36341990530490875244e-02) (101, -3.48058566451072692871e-02) (102, -1.22299909591674804688e-01) (103, 2.84140463918447494507e-02) (104, -8.34108963608741760254e-02) (105, 8.50263908505439758301e-02) (106, -2.35398977994918823242e-01) (107, 1.77240837365388870239e-02) (108, 2.94768828898668289185e-02) (109, -5.74114322662353515625e-02) (110, -1.05881094932556152344e-01) (111, -8.80559235811233520508e-02) (112, -6.65726363658905029297e-02) (113, 5.50855286419391632080e-02) (114, 1.15493163466453552246e-01) (115, -1.27841820940375328064e-02) (116, -3.13324220478534698486e-02) (117, -6.37837871909141540527e-02) (118, 1.50382118299603462219e-02) (119, -7.52966338768601417542e-03) (120, -6.36885166168212890625e-02) (121, 5.42062446475028991699e-02) (122, -5.41972219944000244141e-02) (123, -7.27977752685546875000e-02) (124, -3.22801657021045684814e-02) (125, 7.68458023667335510254e-02) (126, 7.37146288156509399414e-02) (127, -4.43054139614105224609e-02) (128, -4.23801094293594360352e-02) (129, -5.71061507798731327057e-04) (130, 1.58182960003614425659e-02) (131, -8.48241448402404785156e-02) (132, -6.86184540390968322754e-02) (133, 1.93165857344865798950e-02) (134, 6.76610693335533142090e-02) (135, -1.06501355767250061035e-01) (136, -1.54805425554513931274e-02) (137, 2.72551085799932479858e-02) (138, 3.68648730218410491943e-02) (139, 1.06971159577369689941e-01) (140, -1.01353287696838378906e-01) (141, 5.48513084650039672852e-02) (142, -5.19969724118709564209e-02) (143, -4.52446117997169494629e-02) (144, -5.08824251592159271240e-02) (145, -1.02027088403701782227e-01) (146, 6.46737888455390930176e-02) (147, 4.41607981920242309570e-02) (148, -3.95040363073348999023e-02) (149, 1.43884373828768730164e-02) (150, -8.57516676187515258789e-02) (151, 6.34720027446746826172e-02) (152, -4.46184491738677024841e-03) (153, -1.25246504321694374084e-02) (154, 3.15998233854770660400e-02) (155, -5.95968589186668395996e-02) (156, -9.23310518264770507812e-02) (157, 4.16799560189247131348e-02) (158, -3.04098296910524368286e-02) (159, 4.64787073433399200439e-02) (160, -4.07525114715099334717e-02) (161, 2.01955046504735946655e-02) (162, -7.00705945491790771484e-02) (163, 2.46024373918771743774e-02) (164, -7.73672014474868774414e-02) (165, -1.22026681900024414062e-01) (166, -5.19640417769551277161e-03) (167, -3.16186575219035148621e-03) (168, 3.81238907575607299805e-02) (169, -8.03548097610473632812e-02) (170, -1.64791792631149291992e-02) (171, 1.01852871477603912354e-01) (172, 9.87113490700721740723e-02) (173, 8.15780274569988250732e-03) (174, -1.15292388945817947388e-02) (175, -7.66214653849601745605e-02) (176, 7.71574601531028747559e-02) (177, -1.53916617855429649353e-02) (178, 8.90658050775527954102e-02) (179, -8.37622284889221191406e-02) (180, -1.14458084106445312500e-01) (181, -1.01560473442077636719e-01) (182, 6.68241232633590698242e-02) (183, 5.83163835108280181885e-03) (184, -3.29338498413562774658e-02) (185, 7.37939476966857910156e-02) (186, 6.95352926850318908691e-02) (187, 4.24867011606693267822e-02) (188, 3.37867438793182373047e-02) (189, -1.20322458446025848389e-01) (190, -2.90265791118144989014e-02) (191, -7.96088427305221557617e-02) (192, 3.13858725130558013916e-02) (193, 3.45496833324432373047e-02) (194, -2.06217747181653976440e-02) (195, -1.18503332138061523438e-01) (196, -4.71425056457519531250e-03) (197, -5.83152696490287780762e-02) (198, 2.51679169014096260071e-03) (199, -3.00717307254672050476e-03) (200, -4.94337342679500579834e-02) (201, -4.50313538312911987305e-02) (202, -5.12627027928829193115e-02) (203, -1.96025650948286056519e-02) (204, 4.40963730216026306152e-02) (205, 6.82983994483947753906e-02) (206, 3.96216735243797302246e-02) (207, 3.76806315034627914429e-03) (208, -1.06279909610748291016e-01) (209, -2.12212447077035903931e-02) (210, 8.98666158318519592285e-02) (211, -5.17933145165443420410e-02) (212, 3.42643400654196739197e-03) (213, 4.26926203072071075439e-02) (214, 3.78844328224658966064e-02) (215, -1.03840082883834838867e-01) (216, -4.09652711823582649231e-03) (217, 2.94252224266529083252e-02) (218, 6.84313625097274780273e-02) (219, -9.04236435890197753906e-02) (220, -6.39819214120507240295e-03) (221, -7.50032663345336914062e-02) (222, -8.99165868759155273438e-02) (223, -1.01093184202909469604e-02) (224, 3.61752882599830627441e-02) (225, 1.53090590611100196838e-02) (226, -4.25844341516494750977e-02) (227, -3.98436672985553741455e-02) (228, 2.85412799566984176636e-02) (229, -1.11320376396179199219e-01) (230, 4.43562455475330352783e-02) (231, -7.79782533645629882812e-02) (232, -2.80677042901515960693e-02) (233, -7.85593390464782714844e-02) (234, -1.56856700778007507324e-02) (235, -9.75780189037322998047e-02) (236, 6.98549598455429077148e-02) (237, -9.58778262138366699219e-02) (238, 3.41213829815387725830e-02) (239, -6.75190314650535583496e-02) (240, 4.90438081324100494385e-02) (241, 8.89408402144908905029e-03) (242, -7.96205699443817138672e-02) (243, -6.13874197006225585938e-02) (244, -2.35539972782135009766e-02) (245, -1.15888625383377075195e-01) (246, 7.15916790068149566650e-03) (247, -1.00875407457351684570e-01) (248, 4.45602647960186004639e-02) (249, -8.52575898170471191406e-02) (250, -6.42950832843780517578e-02) (251, -4.00276258587837219238e-02) (252, -3.44135425984859466553e-02) (253, -2.83643957227468490601e-02) (254, 2.57297623902559280396e-02) (255, -3.09621952474117279053e-02) (256, -8.92913341522216796875e-02) (257, -1.21887728571891784668e-01) (258, 6.27323389053344726562e-02) (259, -1.15129590034484863281e-01) (260, -1.07658505439758300781e-01) (261, -1.10638430342078208923e-02) (262, -2.42105443030595779419e-02) (263, -5.51711134612560272217e-02) (264, 3.52180786430835723877e-02) (265, 4.24279645085334777832e-02) (266, 1.42080960795283317566e-02) (267, 2.88364328444004058838e-02) (268, -1.24892830848693847656e-01) (269, -6.50246739387512207031e-02) (270, 3.68501618504524230957e-02) (271, 5.83495460450649261475e-02) (272, 1.03126026690006256104e-01) (273, -1.08053028583526611328e-01) (274, -8.03608670830726623535e-02) (275, -2.59055942296981811523e-02) (276, -9.76237654685974121094e-02) (277, 9.57147963345050811768e-03) (278, 4.37580235302448272705e-02) (279, 6.54225945472717285156e-02) (280, 8.82032699882984161377e-03) (281, 6.28716200590133666992e-02) (282, 1.10988572239875793457e-01) (283, -1.00480839610099792480e-01) (284, -9.41119738854467868805e-04) (285, -1.22974794358015060425e-02) (286, -4.77821715176105499268e-02) (287, 3.83280962705612182617e-02) (288, 3.57056856155395507812e-02) (289, -1.03625908493995666504e-01) (290, 5.85335716605186462402e-02) (291, 4.69281934201717376709e-02) (292, 9.39387455582618713379e-03) (293, 1.08496524393558502197e-01) (294, -1.17098331451416015625e-01) (295, -2.87937801331281661987e-02) (296, 3.82936783134937286377e-02) (297, 2.16052643954753875732e-02) (298, -3.40775996446609497070e-02) (299, 8.70162248611450195312e-02) (300, 4.45784218609333038330e-02) (301, -1.03804901242256164551e-01) (302, -2.39746663719415664673e-02) (303, 6.13700598478317260742e-02) (3, -1.96699106693267822266e+00) (4, -1.90364158153533935547e+00) (5, -1.94432866573333740234e+00) (6, -1.15239548683166503906e+00) (7, -2.01867365837097167969e+00) (8, -7.09286212921142578125e-01) (9, -1.82289969921112060547e+00) (10, -2.03433060646057128906e+00) (11, -1.82844293117523193359e+00) (12, -1.99236214160919189453e+00) (13, -1.96338331699371337891e+00) (14, -1.94307971000671386719e+00) (15, -1.69168257713317871094e+00) (16, -1.77903485298156738281e+00) (17, -2.84299492835998535156e+00) (18, -1.96091175079345703125e+00) (19, -1.94216096401214599609e+00) (20, -1.65854883193969726562e+00) (21, -1.82474732398986816406e+00) (22, -1.84021949768066406250e+00) (23, -1.70111548900604248047e+00) (24, -1.81515896320343017578e+00) (25, -1.90728402137756347656e+00) (26, -1.93327212333679199219e+00) (27, -1.90555584430694580078e+00) (28, -1.85212492942810058594e+00) (29, -1.95736062526702880859e+00) (30, -1.73361110687255859375e+00) (31, -1.82492828369140625000e+00) (32, -1.63034844398498535156e+00) (33, -1.48729979991912841797e+00) (34, -1.98813354969024658203e+00) (35, -1.16201138496398925781e+00) (36, -1.69840025901794433594e+00) (37, -1.68165302276611328125e+00) (38, -3.00808191299438476562e+00) (39, -1.90546751022338867188e+00) (40, -1.88036942481994628906e+00) (41, -1.83763611316680908203e+00) (42, -1.37575042247772216797e+00) (43, -1.85943949222564697266e+00) (44, -9.94567155838012695312e-01) (45, -1.74594128131866455078e+00) (46, -1.44436109066009521484e+00) (47, -1.76821613311767578125e+00) (48, -7.26257026195526123047e-01) (49, -1.88216102123260498047e+00) (50, -1.92121326923370361328e+00) (51, -1.93424260616302490234e+00) (52, -2.91051650047302246094e+00) (53, -1.43285214900970458984e+00) (54, -1.81267738342285156250e+00) (55, -1.78203749656677246094e+00) (56, -2.00839519500732421875e+00) (57, -1.78100669384002685547e+00) (58, -3.04673290252685546875e+00) (59, -1.44564184570312500000e+03) (60, -1.85557222366333007812e+00) (61, -2.06275248527526855469e+00) (62, -1.73153460025787353516e+00) (63, -1.90511572360992431641e+00) (64, -3.49420499801635742188e+00) (65, -1.04172551631927490234e+00) (66, -1.70189607143402099609e+00) (67, -1.94649291038513183594e+00) (68, -4.58504867553710937500e+00) (69, -1.74764931201934814453e+00) (70, -1.35278058052062988281e+00) (71, -1.76022195816040039062e+00) (72, -1.94672298431396484375e+00) (73, -1.74453353881835937500e+00) (74, -1.72516739368438720703e+00) (75, -1.98232901096343994141e+00) (76, -1.77510750293731689453e+00) (77, -1.45831918716430664062e+00) (78, -1.95187509059906005859e+00) (79, -1.83635270595550537109e+00) (80, -2.00355458259582519531e+00) (81, -1.73181641101837158203e+00) (82, -1.93912994861602783203e+00) (83, -2.90082406997680664062e+00) (84, -1.73825955390930175781e+00) (85, -8.18152904510498046875e-01) (86, -1.09963572025299072266e+00) (87, -1.77024006843566894531e+00) (88, -1.45076599121093750000e+03) (89, -1.43684363365173339844e+00) (90, -2.00038361549377441406e+00) (91, -1.86568129062652587891e+00) (92, -3.64207506179809570312e+00) (93, -3.46540117263793945312e+00) (94, -1.94967722892761230469e+00) (95, -1.74617421627044677734e+00) (96, -1.85861158370971679688e+00) (97, -1.15887367725372314453e+00) (98, -1.98697495460510253906e+00) (99, -1.95253503322601318359e+00) (100, -1.90893578529357910156e+00) (101, -2.01147890090942382812e+00) (102, -1.92388093471527099609e+00) (103, -1.84267032146453857422e+00) (104, -2.62551903724670410156e+00) (105, -1.45762574672698974609e+00) (106, -2.13939356803894042969e+00) (107, -1.72987532615661621094e+00) (108, -1.64983916282653808594e+00) (109, -8.13368678092956542969e-01) (110, -1.93178224563598632812e+00) (111, -1.76897263526916503906e+00) (112, -2.00098347663879394531e+00) (113, -1.67094588279724121094e+00) (114, -1.70373058319091796875e+00) (115, -1.94162142276763916016e+00) (116, -1.78452181816101074219e+00) (117, -3.00242729187011718750e+01) (118, -1.75561368465423583984e+00) (119, -1.98298311233520507812e+00) (120, -1.96876132488250732422e+00) (121, -1.07565093040466308594e+00) (122, -1.99598968029022216797e+00) (123, -2.40947985649108886719e+00) (124, -1.75891661643981933594e+00) (125, -1.77023863792419433594e+00) (126, -8.74057471752166748047e-01) (127, -1.73603558540344238281e+00) (128, -1.74295747280120849609e+00) (129, -8.46996426582336425781e-01) (130, -1.67611765861511230469e+00) (131, -1.81900823116302490234e+00) (132, -1.81211757659912109375e+00) (133, -3.04103350639343261719e+00) (134, -1.75579106807708740234e+00) (135, -1.90903115272521972656e+00) (136, -1.42376720905303955078e+00) (137, -1.67611014842987060547e+00) (138, -1.58991193771362304688e+00) (139, -1.77798223495483398438e+00) (140, -1.97066283226013183594e+00) (141, -2.95832800865173339844e+00) (142, -2.88355040550231933594e+00) (143, -3.58289098739624023438e+00) (144, -1.97792792320251464844e+00) (145, -1.93101537227630615234e+00) (146, -1.71018087863922119141e+00) (147, -3.00317668914794921875e+00) (148, -1.98355865478515625000e+00) (149, -1.94751441478729248047e+00) (150, -1.11915099620819091797e+00) (151, -2.96543431282043457031e+00) (152, -1.99876248836517333984e+00) (153, -2.09066724777221679688e+00) (154, -1.78078556060791015625e+00) (155, -2.93918061256408691406e+00) (156, -1.88774740695953369141e+00) (157, -2.40962799072265625000e+02) (158, -1.79623770713806152344e+00) (159, -1.99865889549255371094e+00) (160, -1.06169211864471435547e+00) (161, -1.84246909618377685547e+00) (162, -1.81854033470153808594e+00) (163, -4.46599912643432617188e+00) (164, -1.99442589282989501953e+00) (165, -1.85149371623992919922e+00) (166, -1.91751253604888916016e+00) (167, -1.88709664344787597656e+00) (168, -7.39414751529693603516e-01) (169, -1.90898501873016357422e+00) (170, -1.83846080303192138672e+00) (171, -2.85375380516052246094e+00) (172, -1.34777963161468505859e+00) (173, -1.84329557418823242188e+00) (174, -2.16908001899719238281e+00) (175, -3.98844238281250000000e+02) (176, -1.77434492111206054688e+00) (177, -1.34469032287597656250e+00) (178, -4.38073492050170898438e+00) (179, -1.80246698856353759766e+00) (180, -1.96126508712768554688e+00) (181, -2.00950646400451660156e+00) (182, -1.85786068439483642578e+00) (183, -8.15218865871429443359e-01) (184, -1.93587422370910644531e+00) (185, -1.74881815910339355469e+00) (186, -2.16596627235412597656e+00) (187, -1.77724623680114746094e+00) (188, -1.81798768043518066406e+00) (189, -1.85968601703643798828e+00) (190, -1.88256466388702392578e+00) (191, -1.65237855911254882812e+00) (192, -1.99649119377136230469e+00) (193, -3.04713559150695800781e+00) (194, -1.83658158779144287109e+00) (195, -1.97960734367370605469e+00) (196, -2.01879668235778808594e+00) (197, -1.44873845577239990234e+00) (198, -1.68437755107879638672e+00) (199, -1.38168203830718994141e+00) (200, -1.83064913749694824219e+00) (201, -1.71372210979461669922e+00) (202, -1.88048779964447021484e+00) (203, -1.65913677215576171875e+00) (204, -1.91809093952178955078e+00) (205, -1.64364361763000488281e+00) (206, -1.63977360725402832031e+00) (207, -3.49400782585144042969e+00) (208, -1.84292578697204589844e+00) (209, -8.00530314445495605469e-01) (210, -1.49554014205932617188e+00) (211, -2.67197585105895996094e+00) (212, -1.92755019664764404297e+00) (213, -1.82223081588745117188e+00) (214, -1.92464625835418701172e+00) (215, -1.05728018283843994141e+00) (216, -1.94443118572235107422e+00) (217, -1.69471478462219238281e+00) (218, -1.64232206344604492188e+00) (219, -1.93664014339447021484e+00) (220, -1.88038957118988037109e+00) (221, -2.00439357757568359375e+00) (222, -1.96324002742767333984e+00) (223, -1.98856377601623535156e+00) (224, -3.60776829719543457031e+00) (225, -1.98851144313812255859e+00) (226, -1.84139239788055419922e+00) (227, -1.96862316131591796875e+00) (228, -1.42998458862304687500e+02) (229, -1.87284541130065917969e+00) (230, -1.82665717601776123047e+00) (231, -1.92639017105102539062e+00) (232, -1.75146031379699707031e+00) (233, -1.88958775997161865234e+00) (234, -1.96005165576934814453e+00) (235, -1.83510518074035644531e+00) (236, -1.90829181671142578125e+00) (237, -1.84720993041992187500e+00) (238, -1.87896406650543212891e+00) (239, -1.77361321449279785156e+00) (240, -2.05192589759826660156e+00) (241, -1.05612289905548095703e+00) (242, -1.91781806945800781250e+00) (243, -3.64202976226806640625e+00) (244, -3.48829102516174316406e+00) (245, -1.82917225360870361328e+00) (246, -2.86236286163330078125e+00) (247, -1.99375772476196289062e+00) (248, -3.00206804275512695312e+00) (249, -1.85187160968780517578e+00) (250, -1.90843868255615234375e+00) (251, -1.78082227706909179688e+00) (252, -1.84383082389831542969e+00) (253, -1.85838687419891357422e+00) (254, -1.37238121032714843750e+00) (255, -1.81477594375610351562e+00) (256, -1.72768485546112060547e+00) (257, -7.47259974479675292969e-01) (258, -2.63724613189697265625e+00) (259, -1.93132936954498291016e+00) (260, -1.93674659729003906250e+00) (261, -6.09305715560913085938e+00) (262, -2.00545096397399902344e+00) (263, -3.49646377563476562500e+00) (264, -1.84301578998565673828e+00) (265, -1.20679736137390136719e+00) (266, -1.99907362461090087891e+00) (267, -1.83125507831573486328e+00) (268, -1.95476329326629638672e+00) (269, -1.95075273513793945312e+00) (270, -4.20699768066406250000e+02) (271, -1.64769387245178222656e+00) (272, -4.19071865081787109375e+00) (273, -1.96831810474395751953e+00) (274, -1.60578131675720214844e+00) (275, -1.03643035888671875000e+00) (276, -1.98503744602203369141e+00) (277, -2.87754273414611816406e+00) (278, -1.80322241783142089844e+00) (279, -1.42663395404815673828e+00) (280, -1.10885810852050781250e+00) (281, -1.88504326343536376953e+00) (282, -1.67513847351074218750e+00) (283, -1.13553166389465332031e+00) (284, -1.10190856456756591797e+00) (285, -1.95263206958770751953e+00) (286, -2.53709411621093750000e+02) (287, -1.72939324378967285156e+00) (288, -2.16689515113830566406e+00) (289, -3.49010372161865234375e+00) (290, -2.93919157981872558594e+00) (291, -1.44975948333740234375e+00) (292, -3.64467477798461914062e+00) (293, -1.68138718605041503906e+00) (294, -1.97961795330047607422e+00) (295, -7.31344640254974365234e-01) (296, -1.88568055629730224609e+00) (297, -1.36989331245422363281e+00) (298, -1.48024368286132812500e+00) (299, -2.89533591270446777344e+00) (300, -1.98886728286743164062e+00) (301, -1.82562839984893798828e+00) (302, -1.84960269927978515625e+00) (303, -6.29347622394561767578e-01) (3, -2.24517607688903808594e+00) (4, -2.13971304893493652344e+00) (5, -3.86291503906250000000e+00) (6, -7.77314472198486328125e+00) (7, -3.83000850677490234375e+00) (8, -3.86345052719116210938e+00) (9, -7.44511127471923828125e+00) (10, -1.39788360595703125000e+01) (11, -2.28523802757263183594e+00) (12, -2.19882130622863769531e+00) (13, -6.25378561019897460938e+00) (14, -2.20460224151611328125e+00) (15, -2.24253330230712890625e+01) (16, -1.39864463806152343750e+01) (17, -1.36213722229003906250e+01) (18, -3.75261855125427246094e+00) (19, -2.10879278182983398438e+00) (20, -1.36812963485717773438e+01) (21, -3.87064766883850097656e+00) (22, -1.38254280090332031250e+01) (23, -1.38209199905395507812e+01) (24, -2.20926260948181152344e+00) (25, -2.13260436058044433594e+00) (26, -7.78036546707153320312e+00) (27, -2.24737715721130371094e+00) (28, -3.91264510154724121094e+00) (29, -2.18495178222656250000e+00) (30, -1.37002859115600585938e+01) (31, -2.08860349655151367188e+00) (32, -2.19348907470703125000e+01) (33, -4.23992776870727539062e+00) (34, -3.89810132980346679688e+00) (35, -7.88742780685424804688e+00) (36, -1.35929250717163085938e+01) (37, -1.36570405960083007812e+01) (38, -6.36410284042358398438e+00) (39, -3.87115025520324707031e+00) (40, -2.20723223686218261719e+00) (41, -7.47379827499389648438e+00) (42, -4.02718400955200195312e+00) (43, -7.67411661148071289062e+00) (44, -7.83455657958984375000e+00) (45, -7.71601533889770507812e+00) (46, -8.19610881805419921875e+00) (47, -1.36824407577514648438e+01) (48, -3.87059855461120605469e+00) (49, -3.85265445709228515625e+00) (50, -2.22796940803527832031e+00) (51, -2.14649534225463867188e+00) (52, -1.36359729766845703125e+01) (53, -4.32122182846069335938e+00) (54, -1.38679637908935546875e+01) (55, -7.83731269836425781250e+00) (56, -3.72199797630310058594e+00) (57, -7.78470516204833984375e+00) (58, -1.39635667800903320312e+01) (59, -1.44564184570312500000e+03) (60, -3.75916409492492675781e+00) (61, -1.39016952514648437500e+01) (62, -7.64972162246704101562e+00) (63, -3.91817998886108398438e+00) (64, -7.81590986251831054688e+00) (65, -7.86663293838500976562e+00) (66, -7.79150676727294921875e+00) (67, -2.09215664863586425781e+00) (68, -1.01950702667236328125e+01) (69, -6.22882890701293945312e+00) (70, -8.10498619079589843750e+00) (71, -1.37475423812866210938e+01) (72, -7.75372552871704101562e+00) (73, -1.36819858551025390625e+01) (74, -7.65868520736694335938e+00) (75, -7.74840068817138671875e+00) (76, -6.36572408676147460938e+00) (77, -8.03863430023193359375e+00) (78, -2.25746440887451171875e+00) (79, -3.86362361907958984375e+00) (80, -3.72584486007690429688e+00) (81, -7.75319385528564453125e+00) (82, -2.26416778564453125000e+00) (83, -1.36478919982910156250e+01) (84, -1.36386299133300781250e+01) (85, -3.77686119079589843750e+00) (86, -1.71188049316406250000e+01) (87, -1.38897132873535156250e+01) (88, -1.45076599121093750000e+03) (89, -4.19953870773315429688e+00) (90, -7.78565502166748046875e+00) (91, -2.11669373512268066406e+00) (92, -7.77384567260742187500e+00) (93, -7.72302055358886718750e+00) (94, -2.09926939010620117188e+00) (95, -7.74956893920898437500e+00) (96, 